tree
version=v2
num_class=1
num_tree_per_iteration=1
label_index=0
max_feature_idx=21
objective=binary sigmoid:1
feature_names=Column_0 Column_1 Column_2 Column_3 Column_4 Column_5 Column_6 Column_7 Column_8 Column_9 Column_10 Column_11 Column_12 Column_13 Column_14 Column_15 Column_16 Column_17 Column_18 Column_19 Column_20 Column_21
feature_infos=[1:761793] [1:4841] [1:4841] [0:1414] [0:0.90476190476190477] [0:0.47499999999999998] [0:0.94999999999999996] [0:1] [0:0.94999999999999996] [0:0.20000000000000001] [0:4.6885295296962646] [18:7122375] [0:431] [0:0.47619047619047622] [0:0.32258064516129031] [0:0.65372045046061344] [0:0.9285714285714286] [0:0.59471365638766516] [0:0.06666666666666668] [0:0.0016591251885369534] [4:56004296] [2:9]
tree_sizes=743 745 740 741 739 745 746 741 747 743 747 752 743 737 750 745 742 749 747 745 742 741 745 745 744 737 743 750 752 752 746 743 747 751 751 749 753 754 748 754 745 753 754 752 760 750 748 749 749 749 747 752 746 749 743 749 751 753 747 752 751 755 753 749 750 750 750 754 750 747 745 749 750 749 751 748 748 756 750 756 751 753 753 751 753 751 752 747 752 754 763 749 757 755 764 755 753 754 755 755 748 748 754 753 754 751 750 750 751 751 671 752 756 755 761 750 755 668 667 671 752 763 758 752 758 750 751 752 753 765 755 749 754 753 753 749 745 760 759 754 755 749 753 755 755 756 754 755 758 751 744 748 753 756 757 758 763 757 744 754 757 751 751 752 757 756 752 752 752 749 751 750 750 751 753 756 751 750 754 755 749 750 749 749 747 755 757 757 753 769 752 759 756 753 751 752 750 755 754 752 753 748 751 755 752 756 757 756 754 755 745 750 747 752 746 760 762 754 753 755 763 751 755 760 757 751 760 750 757 754 753 754 760 753 750 758 757 759 752 759 755 765 756 763 763 754 747 753 756 753 755 760 757 758 753 756 758 761 754 755 755 752 753 755 753 753 749 756 757 750 755 752 752 748 756 748 750 753 748 754 760 758 758 762 751 753 754 753 741 754 751 751 751 751 759 755 752 752 749 754 753 758 758 759 747 757 756 760 755 754 758 757 757 758 759 765 754 761 763 753 757 756 759 755 757 745 746 753 753 751 755 755 754 754 751 755 743 756 757 746 754 751 748 756 753 674 676 678 675 755 676 676 677 747 751 678 746 760 753 676 756 762 758 755 753 754 754 758 761 760 754 748 754 759 751 759 751 750 751 758 758 755 756 756 751 756 756 753 753 758 755 750 750 748 751 758 755 753 754 754 760 678 768 673 679 760 751 750 756 764 757 763 758 759 756 753 752 754 760 754 758 756 757 748 757 748 759 757 762 756 753 760 762 763 754 752 748 747 750 755 754 761 754 749 750 754 754 674 752 758 756 753 752 755 751 756 744 757 674 753 750 757 754 754 738 750 759 673 750 757 756 757 753 752 750 756 758 761 756 752 680 749 749 752 763 758 744 757 757 761 755 755 757 755 759 676 674 676 672 672 754 756 754 755 751 753 746 752 751 757 755 754 757 755 760 754 746 757 754 748 755 762 760 673 760 761 677 753 677 756 672 750 750 673 743 743 751 752 748 755 746 746 747 756 672 748 746 748 756 753 747 753 735 677 754 674 676 756 668 677 744 674 754 755 749 752 753 754 753 754 761 761 760 672 759 758 750 747 749 740 754 749 760 757 757 754 758 767 759 749 728 677 747 727 746 758 726 753 758 746 673 747 751 670 747 601 753 668 667 594 754 681 760 758 757 758 753 760 759 752 761 755 750 740 746 753 754 760 757 761 751 749 748 678 754 754 747 743 754 753 752 759 676 750 760 743 742 745 763 763 671 668 760 758 751 600 754 752 752 675 739 745 753 738 742 752 757 756 760 756 741 753 749 748 741 767 760 679 767 759 746 749 759 759 744 677 753 680 759 674 672 675 674 758 676 758 759 759 761 754 766 744 764 763 762 678 675 675 677 678 672 673 672 678 675 763 749 682 524 678 754 768 749 672 762 675 745 675 669 671 678 673 681 596 677 748 745 746 746 750 674 673 680 682 677 688 674 749 675 760 667 674 747 677 753 683 665 671 675 676 665 664 663 664 744 755 679 677 764 675 671 684 678 677 689 743 742 759 744 745 756 750 674 751 672 746 744 741 750 747 587 585 754 588 597 669 680 680 668 752 753 750 749 667 753 678 680 748 665 672 759 675 600 683 754 676 674 669 752 756 753 743 677 590 752 755 753 751 746 754 772 757 751 750 751 597 595 755 598 598 683 767 685 748 684 596 754 681 756 759 752 600 741 742 752 755 754 755 757 764 595 595 755 595 597 749 759 759 761 760 671 599 672 672 673 669 753 665 665 672 595 605 596 604 604 749 752 741 756 767 751 603 752 755 753 732 671 600 732 673 760 756 674 669 670 755 755 756 756 758 760 760 673 762 606 755 754 759 758 755 669 673 743 598 672 521 738 739 736 608 668 674 679 741 759 671 755 673 762 759 763 764 759 755 762 745 747 750 746 675 756 755 745 751 751 599 684 598 682 591 746 750 749 595 765 756 759 760 755 766 767 516 763 765 517 674 672 667 518 669 765 766 763 765 761 679 688 672 689 668 755 762 760 766 766 602 606 607 598 599 761 755 759 761 758 760 521 681 521 518 765 758 758 768 766 601 598 602 606 602 671 675 668 672 679 672 675 751 674 758 756 746 773 741 752 762 755 758 754 755 597 594 593 598 756 746 603 593 602 607 751 750 743 755 742 765 759 749 765 740 599 741 743 764 605 769 754 765 764 766 760 763 740 754 752 762 764 519 767 519 755 759 749 681 680 755 689 759 752 735 752 768 753 750 758 753 689 681 757 755 759 764 758 766 758 747 752 746 750 677 594 681 591 675 752 765 757 761 755 754 613 611 611 763 763 743 516 744 517 512 673 758 758 769 771 752 755 753 523 731 756 772 772 754 751 719 661 721 644 669 744 754 758 599 752 764 518 761 756 759 748 671 750 670 747 605 607 605 525 437 768 760 759 764 516 755 761 766 514 758 516 519 764 765 522 443 523 522 441 521 761 756 680 757 751 680 764 516 671 675 674 764 746 678 686 672 516 689 748 751 518 670 670 752 757 652 745 523 652 575 760 756 757 519 521 766 766 763 761 762 749 750 603 606 598 519 746 439 753 443 758 755 752 677 753 754 766 752 759 749 741 748 735 734 748 513 520 750 522 670 760 753 759 772 760 673 760 759 753 737 755 761 766 753 765 756 770 674 678 683 765 766 769 769 767 592 593 596 594 593 669 670 659 668 603 518 762 756 677 760 513 514 515 525 522 670 672 755 684 678 670 671 672 670 668 756 686 740 756 759 516 517 520 680 520 689 690 687 690 682 759 680 677 755 756 753 750 744 747 522 760 777 760 776 778 441 758 750 752 750 754 758 759 761 763 763 762 770 753 759 519 519 518 523 520 680 678 689 687 686 519 439 519 530 519 749 746 592 746 679 603 745 607 597 747 760 749 755 752 671 692 687 694 525 688 755 754 766 755 759 750 749 748 759 752 745 743 742 739 522 763 684 763 763 689 675 676 677 604 602 771 527 530 751 440 741 740 731 743 742 680 764 759 756 681 518 517 522 523 522 438 522 521 436 520 518 521 514 512 749 444 443 667 522 442 603 756 677 758 691 766 760 770 772 769 667 668 667 676 675 766 765 773 763 772 761 761 760 760 684 755 754 667 755 759 761 765 603 526 598 765 757 595 764 597 749 680 596 676 593 744 665 664 754 755 760 759 761 760 756 681 681 681 682 679 750 764 752 764 764 674 674 678 765 669 760 754 518 520 520 740 748 756 754 762 753 598 594 680 607 756 757 778 758 750 747 748 756 752 746 753 758 757 761 759 768 767 767 777 673 752 752 752 757 749 760 752 751 759 758 765 766 769 763 764 751 597 599 520 518 761 763 764 771 758 525 444 442 523 682 680 671 681 674 677 670 682 754 680 676 768 754 754 762 758 771 763 765 771 758 754 752 753 676 676 675 670 677 672 685 591 601 603 603 517 755 757 679 760 673 761 752 766 678 749 673 750 761 756 764 675 669 664 669 669 736 739 737 744 742 750 763 748 767 754 760 758 768 757 759 593 751 594 740 749 667 668 593 758 595 759 761 762 756 750 775 776 775 688 771 662 670 523 654 676 521 517 516 681 519 517 513 435 749 511 753 756 754 688 758 745 671 740 669 670 668 776 606 605 673 687 666 749 685 688 761 764 760 764 756 745 751 749 672 759 683 760 767 679 765 518 520 752 532 673 757 764 763 758 764 755 751 757 757 754 599 520 521 523 520 760 757 755 754 759 755 663 676 670 671 752 763 764 764 760 591 675 773 670 750 670 765 766 677 675 744 688 672 684 688 673 758 676 676 676 669 667 668 753 667 737 758 739 740 750 752 761 759 605 757 524 525 525 526 525 760 773 771 763 773 587 588 588 750 593 514 514 747 748 676 656 567 565 657 738 528 608 607 524 523 437 522 436 440 442 674 601 681 748 671 764 674 762 674 671 760 757 524 766 753 527 527 604 526 518 745 675 674 596 745 745 747 745 752 746 758 753 768 754 755 747 764 692 748 688 521 645 523 724 669 748 764 748 758 748 598 599 600 600 604 753 751 750 738 753 760 761 761 750 762 757 756 675 759 685 754 520 521 520 759 674 598 597 599 606 763 674 765 674 771 759 761 767 772 765 530 524 527 524 523 682 762 760 764 764 532 534 528 529 529 439 440 518 441 601 759 760 756 754 759 440 441 514 440 764 758 597 596 675 596 687 685 688 769 690 599 759 759 758 682 679 680 681 595 679 759 758 678 758 681 765 754 756 771 674 741 614 745 607 742 666 678 683 676 685 688 686 677 761 682 749 756 757 751 751 742 741 735 667 773 760 682 763 767 767 750 766 759 765 758 522 519 519 518 745 590 589 667 683 685 761 672 749 758 746 751 759 674 751 750 740 671 672 749 736 673 674 671 665 671 679 677 675 681 766 757 758 749 756 748 747 598 677 759 526 757 751 743 756 757 748 750 750 753 596 770 765 764 761 765 749 751 758 747 748 742 679 676 671 671 761 739 747 759 763 517 516 522 517 518 764 754 762 759 763 689 755 675 692 690 749 749 741 746 739 761 766 771 750 760 754 754 762 748 753 760 755 760 757 756 744 750 742 748 669 757 752 753 758 759 765 768 676 601 764 749 747 744 741 664 766 767 767 766 758 745 761 769 683 743 598 598 598 764 600 768 751 748 761 766 689 764 671 761 751 676 672 760 678 676 741 745 742 742 438 519 528 519 519 518 601 603 663 662 740 759 762 746 761 747 759 755 756 520 519 750 748 686 690 750 663 667 744 673 674 750 751 531 761 521 777 573 587 505 682 517 751 523 518 755 445 445 442 444 443 684 685 761 685 757 754 667 587 591 590 764 764 763 763 763 746 679 754 608 607 764 749 756 751 768 592 593 748 589 592 438 588 439 438 440 754 754 757 750 755 738 737 680 740 751 598 597 678 596 598 693 693 760 694 692 608 516 520 523 599 752 757 762 748 752 674 595 666 675 686 599 599 523 599 598 686 683 770 681 680 593 660 661 673 591 762 772 764 756 769 680 666 678 757 664 596 758 678 678 593 746 749 745 751 746 754 752 745 743 755 741 742 741 747 742 680 675 757 606 676 756 763 759 679 596 745 690 754 749 746 671 672 675 671 770 684 688 680 684 761 760 761 766 760 763 758 679 677 755 685 670 760 759 675 758 678 763 678 604 753 762 763 525 755 519 681 686 688 524 687 677 681 680 678 680 764 689 751 763 679 767 748 692 769 686 751 771 773 764 755 761 765 761 766 768 765 770 762 688 766 748 746 752 672 742 748 744 752 739 745 745 744 738 752 765 664 744 750 742 595 760 746 675 761 765 673 740 742 742 520 758 759 760 758 757 676 750 755 746 753 516 514 518 519 750 742 743 772 747 749 672 683 754 752 757 526 514 516 593 516 768 769 765 767 764 757 746 746 750 749 753 763 764 762 755 444 444 443 444 443 678 753 761 670 673 676 678 674 760 673 670 671 668 672 693 762 746 747 745 743 758 773 758 758 776 441 441 438 440 441 672 671 752 685 671 745 757 741 755 677 764 761 736 764 761 767 679 746 761 765 528 755 524 520 519 758 758 759 754 756 755 770 765 780 781 673 751 674 742 673 758 758 754 670 758 743 749 666 739 739 667 665 662 664 663 743 746 746 756 668 748 764 775 764 762 755 667 667 672 664 759 759 760 756 757 675 765 671 761 746 753 761 762 757 753 680 677 751 764 676 443 445 745 746 744 440 733 737 735 738 747 755 752 751 751 514 756 745 762 671 670 680 673 674 672 672 675 667 672 674 763 754 766 760 759 670 596 670 518 597 676 681 676 676 670 678 678 595 602 604 599 676 595 596 595 757 679 756 761 760 763 763 764 762 763 527 674 672 667 529 518 518 518 515 440 765 767 770 746 743 443 518 674 749 675 749 668 751 750 668 763 762 760 761 762 756 755 757 761 756 595 508 512 512 515 763 763 764 753 763 670 674 758 759 755 680 683 616 689 764 746 665 671 674 671 529 531 528 529 528 752 754 756 748 757 755 755 756 756 752 763 672 673 767 674 676 691 774 773 687 677 672 676 673 672 683 681 755 681 677 679 668 678 673 676 687 747 752 439 748 515 515 533 533 606 679 684 681 684 674 760 757 760 758 758 677 683 756 763 676 675 679 678 677 685 749 758 747 756 672 673 673 760 670 670 749 679 762 678 752 663 670 662 597 602 517 520 522 521 512 681 607 608 682 675 748 740 746 747 749 522 523 676 523 521 646 665 667 763 667 745 743 746 592 745 683 748 681 682 684 764 763 767 761 765 606 607 612 606 758 764 766 762 764 761 756 756 753 681 758 754 677 752 671 750 757 768 760 757 761 509 511 509 511 516 767 761 763 753 756 674 749 673 671 676 674 672 668 751 672 762 741 746 751 770 759 675 744 675 760 670 598 670 671 671 764 751 756 755 674 681 676 753 684 681 769 765 768 764 765 757 681 678 682 677 754 753 753 752 679 444 446 445 530 605 765 764 757 767 767 672 674 672 685 685 594 760 571 756 758 754 755 753 752 751 746 746 747 740 746 756 745 752 672 750 527 680 523 525 527 671 668 667 669 674 748 448 757 447 749 663 680 682 683 682 516 517 761 757 755 596 596 595 673 592 758 755 750 764 760 673 670 757 750 671 692 675 676 600 690 678 675 676 680 750 674 757

Tree=0
num_leaves=8
num_cat=0
split_feature=10 2 21 19 10 2 2
split_gain=25485.9 4250.5 5427.19 743.497 348.945 110.949 70.1767
threshold=4.2363441990762872e-05 5.5000000000000009 5.0000000000000009 6.7865439454166045e-12 0.00028477047363546668 1.5000000000000002 1.5000000000000002
decision_type=2 2 2 2 2 2 2
left_child=1 2 -1 -3 5 -2 -6
right_child=4 3 -4 -5 6 -7 -8
leaf_value=-0.016431315264955317 -0.019840483948050235 0.00085472304596416828 0.010300612250210927 0.017928741821774067 -0.016073216599521302 0.011177602280860193 0.019462663561589152
leaf_count=25748 47 6222 3444 1220 22 1864 17433
internal_value=0 -0.983773 -1.32774 0.365456 1.8529 1.04109 1.94175
internal_count=56000 36634 29192 7442 19366 1911 17455
shrinkage=0.01


Tree=1
num_leaves=8
num_cat=0
split_feature=2 19 19 2 2 2 19
split_gain=22886.8 3155.69 3022.75 542.391 512.449 91.9424 88.0065
threshold=5.5000000000000009 3.5893004935286971e-10 2.6708243632087458e-12 53.500000000000007 2.5000000000000004 1.5000000000000002 2.8450039856738654e-11
decision_type=2 2 2 2 2 2 2
left_child=1 4 3 -2 -1 -3 -4
right_child=2 5 6 -5 -6 -7 -8
leaf_value=-0.014109122209633862 0.0010361016501928121 -0.016844339972669514 0.014970282887596768 0.013015123928328591 -0.0071357374643663297 0.018994328718544045 0.019465002919813054
leaf_count=24478 6002 29 1981 2021 5095 1333 15061
internal_value=0 -1.15369 1.41771 0.405416 -1.29079 1.82265 1.89429
internal_count=56000 30935 25065 8023 29573 1362 17042
shrinkage=0.01


Tree=2
num_leaves=8
num_cat=0
split_feature=10 2 19 2 10 1 2
split_gain=24526.4 4073.27 715.83 386.53 336.245 144.818 67.5351
threshold=4.2363441990762872e-05 5.5000000000000009 6.7865439454166045e-12 2.5000000000000004 0.00028477047363546668 92.500000000000014 1.5000000000000002
decision_type=2 2 2 2 2 2 2
left_child=1 3 -3 -1 5 -2 -6
right_child=4 2 -4 -5 6 -7 -8
leaf_value=-0.014048142640319766 0.014321633445439417 0.00081037229393523581 0.01756610691404303 -0.00787056113409575 -0.015766979233376058 0.0028318524606383288 0.019097159725159341
leaf_count=24327 1227 6222 1220 4865 22 684 17433
internal_value=0 -0.9651 0.355727 -1.30187 1.81804 1.02109 1.90529
internal_count=56000 36634 7442 29192 19366 1911 17455
shrinkage=0.01


Tree=3
num_leaves=8
num_cat=0
split_feature=10 2 2 2 10 1 2
split_gain=24046.5 3993.31 686.976 379.1 330.016 141.998 66.2313
threshold=4.2363441990762872e-05 5.5000000000000009 53.500000000000007 2.5000000000000004 0.00028477047363546668 92.500000000000014 1.5000000000000002
decision_type=2 2 2 2 2 2 2
left_child=1 3 -3 -1 5 -2 -6
right_child=4 2 -4 -5 6 -7 -8
leaf_value=-0.013910989120745849 0.014181544403546756 -5.5838052164518944e-05 0.013842457430006614 -0.0077926732100633538 -0.015616186919928703 0.0028036106548827472 0.018914676458998973
leaf_count=24327 1227 5526 1916 4865 22 684 17433
internal_value=0 -0.955627 0.352195 -1.28913 1.80062 1.01103 1.88708
internal_count=56000 36634 7442 29192 19366 1911 17455
shrinkage=0.01


Tree=4
num_leaves=8
num_cat=0
split_feature=10 21 2 0 10 1 2
split_gain=23579.1 3921.06 5425.3 613.762 324.614 143.109 86.3792
threshold=4.2363441990762872e-05 5.0000000000000009 3.5000000000000004 9.5000000000000018 0.00020244743502084687 156.50000000000003 1.5000000000000002
decision_type=2 2 2 2 2 2 2
left_child=1 2 -1 -3 5 -2 -6
right_child=4 3 -4 -5 6 -7 -8
leaf_value=-0.016805489431351638 0.012163950502358712 -0.0039507825463167678 0.001079208166927315 0.015060883154029621 -0.016370925227742372 -0.0027639282244430103 0.018636172929289551
leaf_count=23466 1144 906 9549 2713 28 331 17863
internal_value=0 -0.946311 -1.16306 1.03009 1.78365 0.881184 1.8581
internal_count=56000 36634 33015 3619 19366 1475 17891
shrinkage=0.01


Tree=5
num_leaves=8
num_cat=0
split_feature=19 2 21 2 2 19 19
split_gain=21204.6 4704.36 5355.43 883.768 623.436 104.256 1.04893
threshold=6.2277682249810669e-12 5.5000000000000009 5.0000000000000009 1.5000000000000002 41.500000000000007 4.2558379169903429e-11 4.4745696828166335e-10
decision_type=2 2 2 2 2 2 2
left_child=1 2 -1 6 -3 -5 -2
right_child=3 4 -4 5 -6 -7 -8
leaf_value=-0.015640062862959322 -0.019299504073654508 0.00071963998225963821 0.010633594985335367 0.013669144773400707 0.012265827735733693 0.018665625881825493 -0.014138373883813034
leaf_count=25447 238 5803 3535 1872 2763 16318 24
internal_value=0 -0.85802 -1.24321 1.76253 0.444272 1.81515 -1.88495
internal_count=56000 37548 28982 18452 8566 18190 262
shrinkage=0.01


Tree=6
num_leaves=8
num_cat=0
split_feature=19 3 1 19 11 3 19
split_gain=20798.2 1822.18 775.476 261.77 406.511 123.09 18.2424
threshold=6.2277682249810669e-12 5.5000000000000009 23.500000000000004 6.4148456646799824e-11 1494.5000000000002 8.5000000000000018 5.2274084359622553e-10
decision_type=2 2 2 2 2 2 2
left_child=1 2 -1 4 -2 -3 -5
right_child=3 5 -4 6 -6 -7 -8
leaf_value=-0.0063312771037473195 -0.0032323047158643588 0.0053249041578022063 -0.012258667423489225 0.016947524039751166 0.015890573643383567 0.015380013094050333 0.018727557781469721
leaf_count=16380 581 982 19215 2880 1905 971 13086
internal_value=0 -0.849804 -0.953074 1.74647 1.14171 1.03244 1.84068
internal_count=56000 37548 35595 18452 2486 1953 15966
shrinkage=0.01


Tree=7
num_leaves=8
num_cat=0
split_feature=10 21 2 0 10 1 2
split_gain=22396.8 3887.3 5184.52 592.051 306.183 112.387 72.8029
threshold=4.2363441990762872e-05 5.0000000000000009 3.5000000000000004 23.500000000000004 0.00020244743502084687 70.500000000000014 1.5000000000000002
decision_type=2 2 2 2 2 2 2
left_child=1 2 -1 -3 5 -2 -6
right_child=4 3 -4 -5 6 -7 -8
leaf_value=-0.016434571983713897 0.013559817633491119 -0.00041500775700712724 0.0010789226934509811 0.016342687662933002 -0.014531904731737559 0.0023812921354040158 0.018206898446584623
leaf_count=23371 817 1313 9528 2357 27 645 17942
internal_value=0 -0.917397 -1.13557 1.03478 1.74386 0.862737 1.81573
internal_count=56000 36569 32899 3670 19431 1462 17969
shrinkage=0.01


Tree=8
num_leaves=8
num_cat=0
split_feature=10 2 19 2 10 2 2
split_gain=21972.4 3654.45 665.561 342.189 301.181 94.5198 71.4557
threshold=4.2363441990762872e-05 5.5000000000000009 6.7865439454166045e-12 2.5000000000000004 0.00020244743502084687 1.5000000000000002 1.5000000000000002
decision_type=2 2 2 2 2 2 2
left_child=1 3 -3 -1 5 -2 -6
right_child=4 2 -4 -5 6 -7 -8
leaf_value=-0.013250891322131933 -0.019578968619058043 0.00080558181411157035 0.017036281277643329 -0.0074178337069081201 -0.014397536273075729 0.0094642272652131626 0.018047195180714432
leaf_count=24321 46 6204 1210 4834 27 1416 17942
internal_value=0 -0.908731 0.345001 -1.22828 1.72845 0.854423 1.7998
internal_count=56000 36569 7414 29155 19431 1462 17969
shrinkage=0.01


Tree=9
num_leaves=8
num_cat=0
split_feature=17 21 12 16 3 0 17
split_gain=17744.8 4055.98 1251.57 947.152 944.816 500.531 67.9964
threshold=0.00075721723347583938 5.0000000000000009 1.5000000000000002 0.14133280218529484 5.5000000000000009 34.500000000000007 0.006252443315089915
decision_type=2 2 2 2 2 2 2
left_child=1 4 3 -2 -1 -3 -4
right_child=2 5 6 -5 -6 -7 -8
leaf_value=-0.011772080975148242 0.011575642915715395 0.0026263934949103548 0.014657336005305607 -0.0068814208825457839 0.0099476706956779914 0.017187007121852945 0.017933662231320469
leaf_count=30052 3732 1713 3204 1594 826 2107 12772
internal_value=0 -0.87792 1.44658 0.605269 -1.11913 1.06606 1.72762
internal_count=56000 34698 21302 5326 30878 3820 15976
shrinkage=0.01


Tree=10
num_leaves=8
num_cat=0
split_feature=10 2 19 2 10 1 2
split_gain=21112.3 3587.8 659.061 357.984 319.245 135.392 52.7342
threshold=4.2363441990762872e-05 5.5000000000000009 6.7865439454166045e-12 2.5000000000000004 0.00028477047363546668 94.500000000000014 1.5000000000000002
decision_type=2 2 2 2 2 2 2
left_child=1 3 -3 -1 5 -2 -6
right_child=4 2 -4 -5 6 -7 -8
leaf_value=-0.013117721080907759 0.01311678142619805 0.00083541353956104116 0.017043784610718954 -0.0071570027837859172 -0.013033146363861468 0.0019675926345114913 0.017838372616193216
leaf_count=24380 1236 6230 1201 4847 22 676 17408
internal_value=0 -0.896238 0.344676 -1.21277 1.69424 0.917046 1.77989
internal_count=56000 36658 7431 29227 19342 1912 17430
shrinkage=0.01


Tree=11
num_leaves=8
num_cat=0
split_feature=2 19 19 2 2 19 19
split_gain=19086.7 2615.71 2535.44 470.987 466.734 83.6968 11.6501
threshold=5.5000000000000009 5.2274084359622553e-10 2.6708243632087458e-12 45.500000000000007 2.5000000000000004 2.8450039856738654e-11 5.9593413222745505e-09
decision_type=2 2 2 2 2 2 2
left_child=1 4 3 -2 -1 -4 -3
right_child=2 6 5 -5 -6 -7 -8
leaf_value=-0.012930721893033863 0.00067602022754494984 0.012899806888774928 0.013490657912060913 0.011532048941063725 -0.0062682729919886718 0.017889094875747257 0.018067520167952118
leaf_count=24552 5758 217 1980 2219 5097 15084 1093
internal_value=0 -1.05605 1.29934 0.369213 -1.17832 1.73777 1.72147
internal_count=56000 30959 25041 7977 29649 17064 1310
shrinkage=0.01


Tree=12
num_leaves=8
num_cat=0
split_feature=10 21 2 20 10 2 2
split_gain=20362.7 3731.92 4853.72 543.662 310.423 111.051 51.2086
threshold=4.2363441990762872e-05 5.0000000000000009 3.5000000000000004 105.50000000000001 0.00028477047363546668 1.5000000000000002 1.5000000000000002
decision_type=2 2 2 2 2 2 2
left_child=1 2 -1 -3 5 -2 -6
right_child=4 3 -4 -5 6 -7 -8
leaf_value=-0.015856023832800988 -0.019210181340197263 -0.0013445914258770561 0.0010970926706989651 0.015399004742224541 -0.012884197653952462 0.0098289427536587797 0.017556406047504323
leaf_count=23460 54 1114 9526 2558 22 1858 17408
internal_value=0 -0.88025 -1.09418 1.03218 1.66706 0.900277 1.75174
internal_count=56000 36658 32986 3672 19342 1912 17430
shrinkage=0.01


Tree=13
num_leaves=8
num_cat=0
split_feature=10 21 2 21 10 1 2
split_gain=19987.3 3660.93 4767.37 425.612 306.053 131.339 50.3016
threshold=4.2363441990762872e-05 5.0000000000000009 3.5000000000000004 7.5000000000000009 0.00028477047363546668 94.500000000000014 1.5000000000000002
decision_type=2 2 2 2 2 2 2
left_child=1 2 -1 -3 5 -2 -6
right_child=4 3 -4 -5 6 -7 -8
leaf_value=-0.015718814561580731 0.012811896826202264 0.013822391376570818 0.0010861227546929129 -0.0026457273752224027 -0.012769708144399178 0.00182320869969091 0.01741468910720903
leaf_count=23460 1236 2868 9526 804 22 676 17408
internal_value=0 -0.872202 -1.08428 1.0218 1.65338 0.89183 1.7376
internal_count=56000 36658 32986 3672 19342 1912 17430
shrinkage=0.01


Tree=14
num_leaves=8
num_cat=0
split_feature=10 21 17 20 10 1 10
split_gain=19621 3591.57 1253.37 527.385 302.564 119.605 52.9959
threshold=4.2363441990762872e-05 5.0000000000000009 0.0010742581098769717 105.50000000000001 0.000173012750961267 104.50000000000001 0.00081624767488029713
decision_type=2 2 2 2 2 2 2
left_child=1 2 -1 -3 5 -2 -6
right_child=4 3 -4 -5 6 -7 -8
leaf_value=-0.012103731437934827 0.011325086662554463 -0.0013746478106887406 0.00052568243356214308 0.015115623071645165 0.014280285857612538 -0.0015708381720419007 0.017511917839857494
leaf_count=29446 884 1114 3540 2558 2384 428 15646
internal_value=0 -0.86429 -1.07456 1.01154 1.64003 0.710346 1.70836
internal_count=56000 36658 32986 3672 19342 1312 18030
shrinkage=0.01


Tree=15
num_leaves=8
num_cat=0
split_feature=2 21 2 17 20 2 13
split_gain=17802.6 4289.57 2495.46 1877.27 538.902 376.41 118.522
threshold=5.5000000000000009 5.0000000000000009 1.5000000000000002 0.00054137110608098895 63.500000000000007 53.500000000000007 0.0060369765764397712
decision_type=2 2 2 2 2 2 2
left_child=1 2 -1 5 -3 -2 -5
right_child=3 4 -4 6 -6 -7 -8
leaf_value=-0.018100321978857862 0.00089872639226531948 -0.0036311126147921557 -0.0058529954481033823 0.013338659647636465 0.014877209280636263 0.012497271761443779 0.016938779167507301
leaf_count=15817 5130 821 11686 5169 2702 1438 13237
internal_value=0 -1.02032 -1.28898 1.26055 1.05669 0.343324 1.59241
internal_count=56000 31026 27503 24974 3523 6568 18406
shrinkage=0.01


Tree=16
num_leaves=8
num_cat=0
split_feature=2 21 19 19 0 2 19
split_gain=17472.3 4209.6 2871.57 2297 546.161 492.979 62.4706
threshold=5.5000000000000009 5.0000000000000009 1.9371209133456948e-10 3.6120348337832637e-12 9.5000000000000018 41.500000000000007 2.8450039856738654e-11
decision_type=2 2 2 2 2 2 2
left_child=1 2 -1 5 -3 -2 -5
right_child=3 4 -4 6 -6 -7 -8
leaf_value=-0.014260996764680465 0.00049776467517971285 -0.0039691087220070495 0.015696043090748957 0.013153626077576797 0.014761160325008467 0.011120992079866901 0.017209693764270728
leaf_count=26137 5614 809 1366 1727 2714 2553 15080
internal_value=0 -1.0113 -1.27775 1.24985 1.0463 0.380885 1.67911
internal_count=56000 31026 27503 24974 3523 8167 16807
shrinkage=0.01


Tree=17
num_leaves=8
num_cat=0
split_feature=10 21 2 0 10 1 10
split_gain=18595.2 3527.22 4357.24 545.152 395.293 132.854 55.2298
threshold=3.0611767308408308e-05 5.0000000000000009 3.5000000000000004 23.500000000000004 0.000173012750961267 78.500000000000014 0.00081624767488029713
decision_type=2 2 2 2 2 2 2
left_child=1 2 -1 -3 5 -2 -6
right_child=4 3 -4 -5 6 -7 -8
leaf_value=-0.015261526042282621 0.010879800442035781 -0.00023964902732006928 0.0010013068172764778 0.015846993347298131 0.013822721405834239 -0.00087437188546791609 0.017137716472335311
leaf_count=23471 1018 1315 9233 2350 2370 623 15620
internal_value=0 -0.852676 -1.06321 1.0076 1.58268 0.640095 1.66992
internal_count=56000 36369 32704 3665 19631 1641 17990
shrinkage=0.01


Tree=18
num_leaves=8
num_cat=0
split_feature=10 21 2 21 10 2 10
split_gain=18260.8 3461.36 4283.12 425.804 390.02 101.858 54.6982
threshold=3.0611767308408308e-05 5.0000000000000009 3.5000000000000004 7.5000000000000009 0.000173012750961267 2.5000000000000004 0.00081624767488029713
decision_type=2 2 2 2 2 2 2
left_child=1 2 -1 -3 5 -2 -6
right_child=4 3 -4 -5 6 -7 -8
leaf_value=-0.015136839327219544 -0.0090035770654150159 0.01353588910506579 0.00099129258396870473 -0.0030952220858584357 0.01370859897017678 0.0079693984523305037 0.01701065108315709
leaf_count=23471 157 2881 9233 784 2370 1484 15620
internal_value=0 -0.845181 -1.05397 0.997827 1.57052 0.634051 1.65735
internal_count=56000 36369 32704 3665 19631 1641 17990
shrinkage=0.01


Tree=19
num_leaves=8
num_cat=0
split_feature=10 21 2 20 10 2 2
split_gain=17934.1 3396.94 4213.74 504.305 384.949 99.8888 54.6948
threshold=3.0611767308408308e-05 5.0000000000000009 2.5000000000000004 105.50000000000001 0.000173012750961267 2.5000000000000004 1.5000000000000002
decision_type=2 2 2 2 2 2 2
left_child=1 2 -1 -3 5 -2 -6
right_child=4 3 -4 -5 6 -7 -8
leaf_value=-0.015867709930437596 -0.008916184152301318 -0.001531495999426711 -0.00081122623130615659 0.014709662530955037 -0.01362207591203674 0.0078944670486043346 0.016492074730685799
leaf_count=21038 157 1089 11666 2576 24 1484 17966
internal_value=0 -0.837805 -1.04488 0.988151 1.55861 0.628067 1.64507
internal_count=56000 36369 32704 3665 19631 1641 17990
shrinkage=0.01


Tree=20
num_leaves=8
num_cat=0
split_feature=10 21 2 0 10 1 2
split_gain=17516.1 3272.38 4332.66 496.823 355.864 134.943 71.9733
threshold=3.3496088121669208e-05 5.0000000000000009 2.5000000000000004 9.5000000000000018 0.000173012750961267 74.500000000000014 1.5000000000000002
decision_type=2 2 2 2 2 2 2
left_child=1 2 -1 -3 5 -2 -6
right_child=4 3 -4 -5 6 -7 -8
leaf_value=-0.015749611985082752 0.011220880471425903 -0.0028476437918645852 -0.0005163351516468184 0.013994688550888057 -0.015613626260658207 -0.00086951865984929251 0.016414439085066266
leaf_count=20968 917 942 11785 2746 28 625 17989
internal_value=0 -0.81745 -1.0212 0.968997 1.55546 0.629794 1.63631
internal_count=56000 36441 32753 3688 19559 1542 18017
shrinkage=0.01


Tree=21
num_leaves=8
num_cat=0
split_feature=10 2 2 10 2 1 2
split_gain=17206.1 2992.49 618.671 351.445 333.88 132.475 70.7535
threshold=3.3496088121669208e-05 5.5000000000000009 54.500000000000007 0.000173012750961267 2.5000000000000004 74.500000000000014 1.5000000000000002
decision_type=2 2 2 2 2 2 2
left_child=1 4 -3 5 -1 -2 -5
right_child=3 2 -4 6 -6 -7 -8
leaf_value=-0.011982802627930699 0.011121084401924426 -3.4474164886013293e-05 0.013401307586342179 -0.015476781608957702 -0.0061937556394068196 -0.0008608009715799982 0.016296618230944099
leaf_count=24323 917 5453 1840 28 4825 625 17989
internal_value=0 -0.810392 0.33461 1.54401 -1.10149 0.623902 1.62456
internal_count=56000 36441 7293 19559 29148 1542 18017
shrinkage=0.01


Tree=22
num_leaves=8
num_cat=0
split_feature=10 21 2 20 10 1 2
split_gain=16901.1 3225.84 4210.45 475.657 347.175 130.062 69.5621
threshold=3.3496088121669208e-05 5.0000000000000009 2.5000000000000004 105.50000000000001 0.000173012750961267 74.500000000000014 1.5000000000000002
decision_type=2 2 2 2 2 2 2
left_child=1 2 -1 -3 5 -2 -6
right_child=4 3 -4 -5 6 -7 -8
leaf_value=-0.015536819802729274 0.011022742768135082 -0.0012178732052455894 -0.00050698220715501971 0.014436313441915876 -0.015342803833720777 -0.00085217154007097729 0.016181409971081279
leaf_count=20968 917 1114 11785 2574 28 625 17989
internal_value=0 -0.803195 -1.006 0.970451 1.53281 0.618084 1.61307
internal_count=56000 36441 32753 3688 19559 1542 18017
shrinkage=0.01


Tree=23
num_leaves=8
num_cat=0
split_feature=2 21 2 17 0 2 17
split_gain=15429.2 3741.18 2368.96 1674.45 488.973 332.813 108.283
threshold=5.5000000000000009 5.0000000000000009 1.5000000000000002 0.00054137110608098895 9.5000000000000018 53.500000000000007 0.0068680122495778937
decision_type=2 2 2 2 2 2 2
left_child=1 2 -1 5 -3 -2 -5
right_child=3 4 -4 6 -6 -7 -8
leaf_value=-0.017175037611677695 0.00090755684181729958 -0.0036752407698823885 -0.005159252200531551 0.012563939889503963 0.014024119947083689 0.011786206710762921 0.016049915141890615
leaf_count=15758 5176 814 11694 5087 2705 1453 13313
internal_value=0 -0.948887 -1.20309 1.18841 0.992818 0.32797 1.50783
internal_count=56000 30971 27452 25029 3519 6629 18400
shrinkage=0.01


Tree=24
num_leaves=8
num_cat=0
split_feature=10 21 2 0 10 1 2
split_gain=16369.4 3113.35 4072.33 473.07 341.69 126.77 67.3718
threshold=3.3496088121669208e-05 5.0000000000000009 2.5000000000000004 23.500000000000004 0.000173012750961267 74.500000000000014 1.5000000000000002
decision_type=2 2 2 2 2 2 2
left_child=1 2 -1 -3 5 -2 -6
right_child=4 3 -4 -5 6 -7 -8
leaf_value=-0.015314944667383487 0.010839449348672554 5.6645657228549277e-05 -0.00051868506731985082 0.014959954760373704 -0.015086913631465693 -0.00089257389457452537 0.015981391156744115
leaf_count=20968 917 1344 11785 2344 28 625 17989
internal_value=0 -0.791051 -0.990801 0.952177 1.51314 0.604985 1.59313
internal_count=56000 36441 32753 3688 19559 1542 18017
shrinkage=0.01


Tree=25
num_leaves=8
num_cat=0
split_feature=10 21 2 0 10 1 2
split_gain=16225.1 3110.87 3979.3 447.639 248.124 83.505 69.0607
threshold=4.2363441990762872e-05 5.0000000000000009 3.5000000000000004 28.500000000000004 0.00015823048025117 101.50000000000001 1.5000000000000002
decision_type=2 2 2 2 2 2 2
left_child=1 2 -1 -3 5 -2 -6
right_child=4 3 -4 -5 6 -7 -8
leaf_value=-0.014346899416455471 0.010250909201830137 0.0009362775797792048 0.0010827514338799923 0.015124706367381811 -0.015053410577726523 -0.00087113571412076099 0.015882522989683678
leaf_count=23534 790 1478 9481 2252 29 415 18021
internal_value=0 -0.783574 -0.983 0.949277 1.52225 0.638236 1.58309
internal_count=56000 36745 33015 3730 19255 1205 18050
shrinkage=0.01


Tree=26
num_leaves=8
num_cat=0
split_feature=10 21 2 0 10 1 2
split_gain=15944.9 3054.13 3920.45 439.666 245.379 82.0119 67.924
threshold=4.2363441990762872e-05 5.0000000000000009 2.5000000000000004 33.500000000000007 0.00015823048025117 101.50000000000001 1.5000000000000002
decision_type=2 2 2 2 2 2 2
left_child=1 2 -1 -3 5 -2 -6
right_child=4 3 -4 -5 6 -7 -8
leaf_value=-0.015093599376707291 0.010162195620951562 0.0014656811737251817 -0.00064626348720640912 0.015370616150077938 -0.014929378083526559 -0.00086240322613492142 0.015776352315052384
leaf_count=21024 790 1597 11991 2133 29 415 18021
internal_value=0 -0.777033 -0.974903 0.940425 1.51183 0.632408 1.5725
internal_count=56000 36745 33015 3730 19255 1205 18050
shrinkage=0.01


Tree=27
num_leaves=8
num_cat=0
split_feature=10 21 2 0 10 2 10
split_gain=15670.7 2998.51 3865.29 432.315 243.322 89.202 27.0204
threshold=4.2363441990762872e-05 5.0000000000000009 3.5000000000000004 28.500000000000004 0.00028477047363546668 1.5000000000000002 0.00095499278436257575
decision_type=2 2 2 2 2 2 2
left_child=1 2 -1 -3 5 -2 -6
right_child=4 3 -4 -5 6 -7 -8
leaf_value=-0.014139855121700587 -0.018529977240311305 0.00091224145042470106 0.0010783877187230536 0.014862077594664349 0.013594608678707452 0.0088356479278105752 0.016086615276841139
leaf_count=23534 49 1478 9481 2252 2095 1825 15286
internal_value=0 -0.770567 -0.966897 0.931699 1.50162 0.810719 1.57846
internal_count=56000 36745 33015 3730 19255 1874 17381
shrinkage=0.01


Tree=28
num_leaves=8
num_cat=0
split_feature=10 2 19 2 10 2 10
split_gain=15402.4 2739.69 579.207 266.766 241.092 87.5462 26.848
threshold=4.2363441990762872e-05 5.5000000000000009 7.2986349999177267e-12 1.5000000000000002 0.00028477047363546668 1.5000000000000002 0.00095499278436257575
decision_type=2 2 2 2 2 2 2
left_child=1 3 -3 -1 5 -2 -6
right_child=4 2 -4 -5 6 -7 -8
leaf_value=-0.011909928357681321 -0.018372076425974972 0.00075792909258775914 0.016026002624701025 -0.0078669600194516253 0.013497087181035448 0.0087574982795865196 0.015984729262234435
leaf_count=18916 49 6218 1198 10413 2095 1825 15286
internal_value=0 -0.764216 0.320029 -1.04635 1.4916 0.80355 1.5683
internal_count=56000 36745 7416 29329 19255 1874 17381
shrinkage=0.01


Tree=29
num_leaves=8
num_cat=0
split_feature=10 21 19 0 10 1 10
split_gain=15137.5 2959.35 1803.03 425.349 239.456 80.3951 50.0497
threshold=4.2363441990762872e-05 5.0000000000000009 3.8922432643307818e-11 33.500000000000007 0.00015823048025117 101.50000000000001 0.00081624767488029713
decision_type=2 2 2 2 2 2 2
left_child=1 2 -1 -3 5 -2 -6
right_child=4 3 -4 -5 6 -7 -8
leaf_value=-0.010482766313514276 0.0099310256318934365 0.0015276277912345576 0.014137321327703014 0.015209453551997152 0.012685172167162844 -0.00099526273068456256 0.015853830495254195
leaf_count=31759 790 1597 1256 2133 2429 415 15621
internal_value=0 -0.757599 -0.95326 0.933419 1.48177 0.611984 1.54223
internal_count=56000 36745 33015 3730 19255 1205 18050
shrinkage=0.01


Tree=30
num_leaves=8
num_cat=0
split_feature=10 21 2 21 10 1 10
split_gain=14901.4 2896.78 3868.51 357.079 185.126 96.1318 19.5869
threshold=5.2917097900061391e-05 5.0000000000000009 3.5000000000000004 7.5000000000000009 0.00042980473372859778 81.500000000000014 0.00102834058046484
decision_type=2 2 2 2 2 2 2
left_child=1 2 -1 -3 5 -2 -6
right_child=4 3 -4 -5 6 -7 -8
leaf_value=-0.013914899581948468 0.012766241306161243 0.012663673759963868 0.0012541319729748573 -0.0025492014667682578 0.013472787093559584 0.0042895624252132078 0.015801336573045839
leaf_count=23509 1407 2892 9621 788 1727 906 15150
internal_value=0 -0.747036 -0.939023 0.939462 1.48004 0.9416 1.55613
internal_count=56000 36810 33130 3680 19190 2313 16877
shrinkage=0.01


Tree=31
num_leaves=8
num_cat=0
split_feature=10 21 2 0 10 1 10
split_gain=14649.6 2844.5 3808.21 418.43 183.749 94.7481 19.49
threshold=5.2917097900061391e-05 5.0000000000000009 3.5000000000000004 40.500000000000007 0.00042980473372859778 83.500000000000014 0.00102834058046484
decision_type=2 2 2 2 2 2 2
left_child=1 2 -1 -3 5 -2 -6
right_child=4 3 -4 -5 6 -7 -8
leaf_value=-0.013815149438644534 0.012630175578851176 0.0019289380844126388 0.0012415937065844633 0.015515630988291436 0.013379476674713569 0.0041879731896762255 0.015705861867730618
leaf_count=23509 1420 1675 9621 2005 1727 893 15150
internal_value=0 -0.740959 -0.931502 0.930775 1.47056 0.933752 1.54659
internal_count=56000 36810 33130 3680 19190 2313 16877
shrinkage=0.01


Tree=32
num_leaves=8
num_cat=0
split_feature=10 21 2 21 10 1 10
split_gain=14403.1 2793.33 3749.26 346.996 182.431 93.4075 19.401
threshold=5.2917097900061391e-05 5.0000000000000009 3.5000000000000004 7.5000000000000009 0.00042980473372859778 81.500000000000014 0.00102834058046484
decision_type=2 2 2 2 2 2 2
left_child=1 2 -1 -3 5 -2 -6
right_child=4 3 -4 -5 6 -7 -8
leaf_value=-0.013717094367890989 0.012574415002143997 0.012451420399831235 0.0012291816495905974 -0.0025488196979931406 0.013287656627788634 0.0042079753125585356 0.015612400337160853
leaf_count=23509 1407 2892 9621 788 1727 906 15150
internal_value=0 -0.734974 -0.924086 0.922295 1.46126 0.926001 1.53724
internal_count=56000 36810 33130 3680 19190 2313 16877
shrinkage=0.01


Tree=33
num_leaves=8
num_cat=0
split_feature=10 21 19 0 10 1 10
split_gain=14161.8 2743.19 1846.02 409.063 181.242 88.0756 24.5206
threshold=5.2917097900061391e-05 5.0000000000000009 3.3811460988803323e-11 12.500000000000002 0.00036968758597286403 83.500000000000014 0.00102834058046484
decision_type=2 2 2 2 2 2 2
left_child=1 2 -1 -3 5 -2 -6
right_child=4 3 -4 -5 6 -7 -8
leaf_value=-0.010168813401171066 0.012221590512394938 -0.0015875598403909444 0.013930253430367252 0.013319252143301383 0.013062264300446786 0.0036090700288862287 0.015520892924404978
leaf_count=31780 1259 1025 1350 2655 1980 801 15150
internal_value=0 -0.729066 -0.916772 0.91386 1.45213 0.882891 1.52338
internal_count=56000 36810 33130 3680 19190 2060 17130
shrinkage=0.01


Tree=34
num_leaves=8
num_cat=0
split_feature=10 19 1 10 1 16 10
split_gain=13923.5 1525.72 632.735 179.986 90.9075 65.8579 19.2309
threshold=5.2917097900061391e-05 3.8922432643307818e-11 24.500000000000004 0.00042980473372859778 81.500000000000014 0.14133280218529484 0.00102834058046484
decision_type=2 2 2 2 2 2 2
left_child=1 2 -1 4 -2 -3 -5
right_child=3 5 -4 6 -6 -7 -8
leaf_value=-0.0051407428719678792 0.012389295397486996 0.016350966542342315 -0.010589599213677031 0.013109221095210023 0.0041242189398023633 0.004892494544564782 0.015431279339399789
leaf_count=16577 1407 1058 18920 1727 906 255 15150
internal_value=0 -0.722945 -0.803359 1.44318 0.910732 1.4134 1.51911
internal_count=56000 36810 35497 19190 2313 1313 16877
shrinkage=0.01


Tree=35
num_leaves=8
num_cat=0
split_feature=10 21 2 20 10 1 10
split_gain=13626.9 2637.86 3660.38 409.2 227.59 116.724 19.731
threshold=4.2363441990762872e-05 5.0000000000000009 2.5000000000000004 199.00000000000003 0.00036968758597286403 124.50000000000001 0.0018359490363834689
decision_type=2 2 2 2 2 2 2
left_child=1 2 -1 -3 5 -2 -6
right_child=4 3 -4 -5 6 -7 -8
leaf_value=-0.014276373759674117 0.011106787551093431 0.00078334130007363056 -0.00023323006866879752 0.014397877114476307 0.013620111768471372 0.00081076084705001747 0.015434997688122981
leaf_count=21150 1595 1491 11932 2205 3242 631 13754
internal_value=0 -0.720129 -0.905336 0.887124 1.4248 0.81396 1.50862
internal_count=56000 36778 33082 3696 19222 2226 16996
shrinkage=0.01


Tree=36
num_leaves=8
num_cat=0
split_feature=10 2 21 19 10 1 10
split_gain=13400.7 2604.9 3551.09 550.181 226.04 116.329 18.2459
threshold=4.2363441990762872e-05 5.5000000000000009 5.0000000000000009 6.7865439454166045e-12 0.00039000460252280259 158.50000000000003 0.0018359490363834689
decision_type=2 2 2 2 2 2 2
left_child=1 2 -1 -3 5 -2 -6
right_child=4 3 -4 -5 6 -7 -8
leaf_value=-0.012614288396116587 0.010694745411696268 0.0010003714968753908 0.0090126027005070983 0.015755230521019493 0.013582246046350822 -0.0001735805558873112 0.015349046770394148
leaf_count=25850 1781 6193 3503 1232 3165 522 13754
internal_value=0 -0.714395 -0.993469 0.341079 1.41619 0.818413 1.50159
internal_count=56000 36778 29353 7425 19222 2303 16919
shrinkage=0.01


Tree=37
num_leaves=8
num_cat=0
split_feature=10 2 21 19 10 1 10
split_gain=13179 2561.25 3490.66 540.815 224.542 113.357 19.6103
threshold=4.2363441990762872e-05 5.5000000000000009 5.0000000000000009 6.7865439454166045e-12 0.00036968758597286403 124.50000000000001 0.0018359490363834689
decision_type=2 2 2 2 2 2 2
left_child=1 2 -1 -3 5 -2 -6
right_child=4 3 -4 -5 6 -7 -8
leaf_value=-0.012523645982072871 0.010936775017770085 0.00099036387764165701 0.0089285561443296288 0.015632765900899945 0.013448743342495776 0.00078270351436656924 0.015264852220486935
leaf_count=25850 1595 6193 3503 1232 3242 631 13754
internal_value=0 -0.708747 -0.986068 0.337794 1.40772 0.800215 1.49153
internal_count=56000 36778 29353 7425 19222 2226 16996
shrinkage=0.01


Tree=38
num_leaves=8
num_cat=0
split_feature=10 2 21 2 10 1 10
split_gain=12961.8 2518.49 3431.45 533.991 223.1 112.936 18.155
threshold=4.2363441990762872e-05 5.5000000000000009 5.0000000000000009 53.500000000000007 0.00039000460252280259 158.50000000000003 0.0018359490363834689
decision_type=2 2 2 2 2 2 2
left_child=1 2 -1 -3 5 -2 -6
right_child=4 3 -4 -5 6 -7 -8
leaf_value=-0.012434326701759899 0.010530481807915047 0.00018791431482401919 0.0088455853295077123 0.012498026913979988 0.01341324629191953 -0.00018413501455826349 0.015182363102064576
leaf_count=25850 1781 5509 3503 1916 3165 522 13754
internal_value=0 -0.703175 -0.978773 0.334546 1.39941 0.804753 1.48483
internal_count=56000 36778 29353 7425 19222 2303 16919
shrinkage=0.01


Tree=39
num_leaves=8
num_cat=0
split_feature=2 17 2 13 2 11 17
split_gain=12042.7 1350.07 859.245 650.764 275.659 147.243 92.6991
threshold=5.5000000000000009 0.00054137110608098895 1.5000000000000002 0.0027045313242877529 53.500000000000007 77.500000000000014 0.0046531311202747793
decision_type=2 2 2 2 2 2 2
left_child=2 4 5 -4 -2 -1 -3
right_child=1 6 3 -5 -6 -7 -8
leaf_value=-0.0077420660078941174 0.00086782139775300746 0.010719462450304525 -0.0061240309092967099 0.0080308259410857199 0.01083258755576922 -0.012229426131840531 0.014468076713597211
leaf_count=3883 5189 3506 10525 1593 1455 15086 14763
internal_value=0 1.07139 -0.854487 -0.429711 0.302118 -1.12994 1.37297
internal_count=56000 24913 31087 12118 6644 18969 18269
shrinkage=0.01


Tree=40
num_leaves=8
num_cat=0
split_feature=19 2 21 2 2 19 15
split_gain=11779.1 2731.14 3418.45 571.999 453.258 89.3093 0.061751
threshold=6.2277682249810669e-12 5.5000000000000009 5.0000000000000009 1.5000000000000002 43.500000000000007 8.7077101722748606e-11 0.043848309757369995
decision_type=2 2 2 2 2 2 2
left_child=1 2 -1 6 -3 -5 -2
right_child=3 4 -4 5 -6 -7 -8
leaf_value=-0.012223751998781016 -0.016492064027462065 0.00037747972182240643 0.0089128415556419538 0.010844230238898116 0.0103864712287761 0.014967821619370195 -0.014362047180799243
leaf_count=25483 220 5869 3553 2679 2725 15428 43
internal_value=0 -0.645297 -0.951681 1.38894 0.349245 1.43455 -1.6169
internal_count=56000 37630 29036 18370 8594 18107 263
shrinkage=0.01


Tree=41
num_leaves=8
num_cat=0
split_feature=19 21 7 0 19 20 19
split_gain=11586.9 2475.29 817.239 388.547 195.481 261.945 14.7398
threshold=6.2277682249810669e-12 5.0000000000000009 0.28531524341580211 40.500000000000007 6.4148456646799824e-11 15526.500000000002 5.906538633070213e-10
decision_type=2 2 2 2 2 2 2
left_child=1 2 -1 -3 5 -2 -6
right_child=4 3 -4 -5 6 -7 -8
leaf_value=-0.0034224362718974126 -0.0020140690497757745 0.0021725752281824373 -0.010350758797222526 0.01496236483538691 0.013368750392892419 0.012729234143645931 0.015006482067854422
leaf_count=10162 713 1840 23605 2023 3063 1810 12784
internal_value=0 -0.640235 -0.821817 0.883941 1.38097 0.844455 1.46877
internal_count=56000 37630 33767 3863 18370 2523 15847
shrinkage=0.01


Tree=42
num_leaves=8
num_cat=0
split_feature=10 21 19 0 10 1 10
split_gain=12207.7 2408.36 1600.84 436.873 213.274 69.1215 46.174
threshold=4.2363441990762872e-05 5.0000000000000009 3.8922432643307818e-11 23.500000000000004 0.000173012750961267 70.500000000000014 0.00081624767488029713
decision_type=2 2 2 2 2 2 2
left_child=1 2 -1 -3 5 -2 -6
right_child=4 3 -4 -5 6 -7 -8
leaf_value=-0.0095510115535014789 0.0099768285874718768 -0.00060854494711173207 0.01349313879179243 0.013744571357121947 0.011599842191618704 0.00053844111595737008 0.014731428890366875
leaf_count=31667 728 1336 1297 2376 2376 570 15650
internal_value=0 -0.682171 -0.862301 0.851903 1.36891 0.574465 1.43067
internal_count=56000 36676 32964 3712 19324 1298 18026
shrinkage=0.01


Tree=43
num_leaves=8
num_cat=0
split_feature=10 21 19 20 10 1 10
split_gain=12007.9 2364.9 1572.04 412.009 211.881 78.1564 28.0193
threshold=4.2363441990762872e-05 5.0000000000000009 3.8922432643307818e-11 125.50000000000001 0.00028477047363546668 67.500000000000014 0.00102834058046484
decision_type=2 2 2 2 2 2 2
left_child=1 2 -1 -3 5 -2 -6
right_child=4 3 -4 -5 6 -7 -8
leaf_value=-0.0094739781968055208 0.011030782990476756 -0.0012373118657557176 0.013382971442593879 0.013096245223590847 0.012214453608584934 0.0026884027666047197 0.014705429630130629
leaf_count=31667 1019 1189 1297 2523 2319 866 15120
internal_value=0 -0.676617 -0.855342 0.844444 1.36124 0.712454 1.4367
internal_count=56000 36676 32964 3712 19324 1885 17439
shrinkage=0.01


Tree=44
num_leaves=8
num_cat=0
split_feature=10 7 17 10 12 10 14
split_gain=11812 663.599 514.285 210.755 155.19 45.9409 33.6813
threshold=4.2363441990762872e-05 0.28531524341580211 0.0010742581098769717 0.000173012750961267 1.5000000000000002 0.00081624767488029713 0.00021260869215391435
decision_type=2 2 2 2 2 2 2
left_child=1 2 -1 6 -3 -5 -2
right_child=3 4 -4 5 -6 -7 -8
leaf_value=-0.0042742638681338612 -0.0010975697764836478 -0.0087228528062729179 0.0084730489731263178 0.011447687980856958 0.002543609938596062 0.014581893716100431 0.0072281830238102819
leaf_count=9001 244 25647 1515 2376 513 15650 1054
internal_value=0 -0.671127 -0.242288 1.35368 -0.849366 1.41555 0.563082
internal_count=56000 36676 10516 19324 26160 18026 1298
shrinkage=0.01


Tree=45
num_leaves=8
num_cat=0
split_feature=2 19 19 2 2 2 19
split_gain=11099.2 1555.36 1550.12 413.928 372.329 41.4125 26.0466
threshold=5.5000000000000009 6.2277682249810669e-12 4.9329818717640993e-10 53.500000000000007 1.5000000000000002 1.5000000000000002 4.6409286263924802e-11
decision_type=2 2 2 2 2 2 2
left_child=2 3 4 -2 -1 -4 -3
right_child=1 6 5 -5 -6 -7 -8
leaf_value=-0.010995273989008861 0.00089664922116379356 0.011938541789869025 -0.013094581495559806 0.010848969972903109 -0.0061880500411348799 0.014640488148330593 0.014649216086970054
leaf_count=18827 6287 1771 22 2392 10792 1289 14620
internal_value=0 1.03667 -0.825797 0.357395 -0.921791 1.41294 1.43484
internal_count=56000 25070 30930 8679 29619 1311 16391
shrinkage=0.01


Tree=46
num_leaves=8
num_cat=0
split_feature=10 2 21 2 10 1 10
split_gain=11527.9 2334.15 3098.79 419.155 169.007 87.6233 15.6081
threshold=5.2917097900061391e-05 7.5000000000000009 5.0000000000000009 70.500000000000014 0.00042980473372859778 92.500000000000014 0.0014895280368110624
decision_type=2 2 2 2 2 2 2
left_child=1 2 -1 -3 5 -2 -6
right_child=4 3 -4 -5 6 -7 -8
leaf_value=-0.011471844525361929 0.011405091829295512 0.0014290201624548211 0.0086721057928024845 0.013274560458348817 0.01276941304878081 0.0030918057830492075 0.014579130710286062
leaf_count=26984 1478 4676 3529 1640 2573 835 14285
internal_value=0 -0.658662 -0.901425 0.447256 1.35312 0.832375 1.42982
internal_count=56000 36829 30513 6316 19171 2313 16858
shrinkage=0.01


Tree=47
num_leaves=8
num_cat=0
split_feature=10 2 21 2 10 1 10
split_gain=11343.1 2296.41 3250.2 572.279 168.315 86.4509 15.6238
threshold=5.2917097900061391e-05 4.5000000000000009 5.0000000000000009 54.500000000000007 0.00042980473372859778 92.500000000000014 0.0014895280368110624
decision_type=2 2 2 2 2 2 2
left_child=1 2 -1 -3 5 -2 -6
right_child=4 3 -4 -5 6 -7 -8
leaf_value=-0.01220186107837487 0.011325676874078964 -0.00029320082117562384 0.0087368657016729315 0.012166283593930932 0.012694904972177295 0.0030623155374722979 0.014509330967186422
leaf_count=24757 1478 6676 3462 1934 2573 835 14285
internal_value=0 -0.653575 -0.947354 0.247572 1.34591 0.825786 1.42274
internal_count=56000 36829 28219 8610 19171 2313 16858
shrinkage=0.01


Tree=48
num_leaves=8
num_cat=0
split_feature=10 2 21 2 10 2 10
split_gain=11162.2 2260.39 2996.09 404.481 167.652 85.0717 15.6431
threshold=5.2917097900061391e-05 7.5000000000000009 5.0000000000000009 70.500000000000014 0.00042980473372859778 1.5000000000000002 0.0014895280368110624
decision_type=2 2 2 2 2 2 2
left_child=1 2 -1 -3 5 -2 -6
right_child=4 3 -4 -5 6 -7 -8
leaf_value=-0.011315122878741249 -0.018456184600231993 0.0014100002410601655 0.0085135064540276355 0.013059330613394518 0.012621429780991773 0.0087813561880535837 0.014440831486306987
leaf_count=26984 47 4676 3529 1640 2573 2266 14285
internal_value=0 -0.648617 -0.888642 0.439669 1.33881 0.819267 1.41579
internal_count=56000 36829 30513 6316 19171 2313 16858
shrinkage=0.01


Tree=49
num_leaves=8
num_cat=0
split_feature=10 2 2 2 10 1 10
split_gain=10984.3 2233.84 550.038 249.49 167.054 85.4052 15.6659
threshold=5.2917097900061391e-05 4.5000000000000009 54.500000000000007 1.5000000000000002 0.00042980473372859778 92.500000000000014 0.0014895280368110624
decision_type=2 2 2 2 2 2 2
left_child=1 3 -3 -1 5 -2 -6
right_child=4 2 -4 -5 6 -7 -8
leaf_value=-0.010751806570944577 0.01118869483099803 -0.00026285720538802253 0.011965873905340176 -0.0066129287531167379 0.012548959397657839 0.0029621019288370173 0.014373597216199494
leaf_count=18783 1478 6676 1934 9436 2573 835 14285
internal_value=0 -0.643648 0.244943 -0.934843 1.33181 0.812765 1.40896
internal_count=56000 36829 8610 28219 19171 2313 16858
shrinkage=0.01


Tree=50
num_leaves=8
num_cat=0
split_feature=2 21 2 19 0 2 19
split_gain=10231.9 2693.99 1961.75 1493.78 410.169 373.271 26.2615
threshold=5.5000000000000009 5.0000000000000009 1.5000000000000002 6.2277682249810669e-12 9.5000000000000018 53.500000000000007 6.913361429853834e-11
decision_type=2 2 2 2 2 2 2
left_child=1 2 -1 5 -3 -2 -5
right_child=3 4 -4 6 -6 -7 -8
leaf_value=-0.015188072300817123 0.00087719517951386427 -0.0039664509371594488 -0.0038891891259525448 0.011808731201432984 0.012418309084606406 0.010431612144997856 0.014338550820247988
leaf_count=15693 6331 798 11711 2153 2694 2340 14280
internal_value=0 -0.798375 -1.02653 1.00325 0.862518 0.338012 1.39974
internal_count=56000 30896 27404 25104 3492 8671 16433
shrinkage=0.01


Tree=51
num_leaves=8
num_cat=0
split_feature=10 21 19 0 10 1 10
split_gain=10637.7 2100.73 1474.77 409.951 96.8637 84.4278 6.68788
threshold=8.3149564349942429e-05 5.0000000000000009 3.3811460988803323e-11 40.500000000000007 0.00068526528403394427 124.50000000000001 0.0018359490363834689
decision_type=2 2 2 2 2 2 2
left_child=1 2 -1 -3 5 -2 -6
right_child=4 3 -4 -5 6 -7 -8
leaf_value=-0.0088336278545106586 0.012059224726155759 0.0010115833400668179 0.012091081414992148 0.014552736920940725 0.012981180341011454 0.0037904002644655451 0.01427167567135243
leaf_count=32126 1996 1681 1483 1975 2245 725 13769
internal_value=0 -0.621918 -0.788732 0.825686 1.3427 0.978729 1.40881
internal_count=56000 37265 33609 3656 18735 2721 16014
shrinkage=0.01


Tree=52
num_leaves=8
num_cat=0
split_feature=10 2 21 2 10 1 10
split_gain=10468.9 2318.2 2752.59 320.748 96.7635 83.4594 6.70929
threshold=8.3149564349942429e-05 9.5000000000000018 5.0000000000000009 70.500000000000014 0.00068526528403394427 124.50000000000001 0.0018359490363834689
decision_type=2 2 2 2 2 2 2
left_child=1 2 -1 -3 5 -2 -6
right_child=4 3 -4 -5 6 -7 -8
leaf_value=-0.010747813461372477 0.01198339348507583 0.0023845657142096571 0.0082795924446588363 0.012770812415818107 0.012912546077201893 0.0037555253893166978 0.014207986100063793
leaf_count=27879 1996 4141 3517 1728 2245 725 13769
internal_value=0 -0.61691 -0.847819 0.539394 1.33604 0.971792 1.40236
internal_count=56000 37265 31396 5869 18735 2721 16014
shrinkage=0.01


Tree=53
num_leaves=8
num_cat=0
split_feature=10 2 2 2 10 2 10
split_gain=10304.6 2278.57 516.625 315.425 96.6759 59.0805 6.73208
threshold=8.3149564349942429e-05 9.5000000000000018 2.5000000000000004 70.500000000000014 0.00068526528403394427 1.5000000000000002 0.0018359490363834689
decision_type=2 2 2 2 2 2 2
left_child=1 2 -1 -3 5 -2 -6
right_child=4 3 -4 -5 6 -7 -8
leaf_value=-0.0099080322790968071 -0.018251050741513317 0.0023608250140964341 -0.0036169962715063122 0.01266765733629059 0.012844880424992494 0.0099920510966446593 0.014145443517204022
leaf_count=24335 30 4141 7061 1728 2245 2691 13769
internal_value=0 -0.612193 -0.841634 0.534319 1.32947 0.964931 1.39602
internal_count=56000 37265 31396 5869 18735 2721 16014
shrinkage=0.01


Tree=54
num_leaves=8
num_cat=0
split_feature=10 2 21 2 10 1 10
split_gain=10141.6 2238.17 2716.62 310.222 96.6246 82.745 6.75624
threshold=8.3149564349942429e-05 9.5000000000000018 5.0000000000000009 70.500000000000014 0.00068526528403394427 124.50000000000001 0.0018359490363834689
decision_type=2 2 2 2 2 2 2
left_child=1 2 -1 -3 5 -2 -6
right_child=4 3 -4 -5 6 -7 -8
leaf_value=-0.010616421696473232 0.011847778496776172 0.0023373263150627834 0.008291140853374861 0.01256610709026377 0.01277815745739495 0.0036383754082445438 0.014084019685305781
leaf_count=27879 1996 4141 3517 1728 2245 725 13769
internal_value=0 -0.607205 -0.834984 0.529302 1.323 0.958098 1.38978
internal_count=56000 37265 31396 5869 18735 2721 16014
shrinkage=0.01


Tree=55
num_leaves=8
num_cat=0
split_feature=2 21 19 2 21 2 19
split_gain=9489.27 2634.26 1718.43 1620.51 366.011 354.954 52.0443
threshold=4.5000000000000009 5.0000000000000009 3.6120348337832637e-12 1.5000000000000002 7.5000000000000009 53.500000000000007 2.8450039856738654e-11
decision_type=2 2 2 2 2 2 2
left_child=1 3 5 -1 -3 -2 -4
right_child=2 4 6 -5 -6 -7 -8
leaf_value=-0.014911035553418734 0.00019071789511230735 0.011250390718818472 0.010070058462593992 -0.004206512538056888 -0.0058545824386049636 0.009699937609081671 0.013924356611072339
leaf_count=15741 7020 2886 1776 10416 612 2153 15396
internal_value=0 -0.815805 0.925501 -1.05532 0.821617 0.235444 1.35049
internal_count=56000 29655 26345 26157 3498 9173 17172
shrinkage=0.01


Tree=56
num_leaves=8
num_cat=0
split_feature=10 21 19 0 10 1 10
split_gain=9891.49 1958.21 1415.7 403.49 108.645 94.5741 6.0097
threshold=7.5837475468918427e-05 5.0000000000000009 2.8450039856738654e-11 40.500000000000007 0.00071768495297899412 100.50000000000001 0.0018359490363834689
decision_type=2 2 2 2 2 2 2
left_child=1 2 -1 -3 5 -2 -6
right_child=4 3 -4 -5 6 -7 -8
leaf_value=-0.0086469772070477385 0.012037926972724915 0.00075006068289160729 0.011856614787343263 0.014130052876291996 0.012706929370227125 0.0039850414662819288 0.013972773997297936
leaf_count=32024 1968 1711 1498 1982 2141 945 13731
internal_value=0 -0.606635 -0.770512 0.784652 1.30588 0.93333 1.37989
internal_count=56000 37215 33522 3693 18785 2913 15872
shrinkage=0.01


Tree=57
num_leaves=8
num_cat=0
split_feature=10 2 19 2 10 1 10
split_gain=9736.31 2113.55 498.737 268.802 108.564 93.5602 6.03704
threshold=7.5837475468918427e-05 4.5000000000000009 2.0060951635837099e-11 1.5000000000000002 0.00071768495297899412 100.50000000000001 0.0018359490363834689
decision_type=2 2 2 2 2 2 2
left_child=1 3 -3 -1 5 -2 -6
right_child=4 2 -4 -5 6 -7 -8
leaf_value=-0.01039224948121455 0.011966357899345633 0.00058113019589896297 0.014455418415580502 -0.0060712581342856628 0.01264273587365603 0.0039488369248227954 0.013914394763191774
leaf_count=18858 1968 7550 1284 9523 2141 945 13731
internal_value=0 -0.601815 0.250054 -0.891291 1.29968 0.926798 1.37396
internal_count=56000 37215 8834 28381 18785 2913 15872
shrinkage=0.01


Tree=58
num_leaves=8
num_cat=0
split_feature=10 2 21 2 10 1 10
split_gain=9583.41 2077.7 2817.46 480.608 108.494 92.5653 6.06544
threshold=7.5837475468918427e-05 4.5000000000000009 5.0000000000000009 70.500000000000014 0.00071768495297899412 100.50000000000001 0.0018359490363834689
decision_type=2 2 2 2 2 2 2
left_child=1 2 -1 -3 5 -2 -6
right_child=4 3 -4 -5 6 -7 -8
leaf_value=-0.01144672482707542 0.011895676103290396 0.0002001789289806117 0.0081229699947051367 0.012194058657978686 0.012579400273223254 0.0039129564335336651 0.013857028726571885
leaf_count=24915 1968 7117 3466 1717 2141 945 13731
internal_value=0 -0.596937 -0.884493 0.247677 1.29357 0.920332 1.36813
internal_count=56000 37215 28381 8834 18785 2913 15872
shrinkage=0.01


Tree=59
num_leaves=8
num_cat=0
split_feature=10 21 7 0 10 1 10
split_gain=9435.5 1902.91 849.945 398.616 108.436 91.5888 6.0949
threshold=7.5837475468918427e-05 5.0000000000000009 0.28531524341580211 23.500000000000004 0.00071768495297899412 100.50000000000001 0.0018359490363834689
decision_type=2 2 2 2 2 2 2
left_child=1 2 -1 -3 5 -2 -6
right_child=4 3 -4 -5 6 -7 -8
leaf_value=-0.0026341151013478991 0.011825858169404894 -0.00082888417131897442 -0.0098174170752572971 0.012906615188134829 0.012516900265360511 0.0038773965877674718 0.013800652742467752
leaf_count=10140 1968 1350 23382 2343 2141 945 13731
internal_value=0 -0.59254 -0.755116 0.779305 1.28755 0.913932 1.36239
internal_count=56000 37215 33522 3693 18785 2913 15872
shrinkage=0.01


Tree=60
num_leaves=8
num_cat=0
split_feature=10 2 2 2 10 1 10
split_gain=9289.27 1881.49 425.73 319.207 259.608 100.577 26.3662
threshold=3.0611767308408308e-05 5.5000000000000009 53.500000000000007 1.5000000000000002 0.00028477047363546668 67.500000000000014 0.0018359490363834689
decision_type=2 2 2 2 2 2 2
left_child=1 3 -3 -1 5 -2 -6
right_child=4 2 -4 -5 6 -7 -8
leaf_value=-0.010243348476824066 0.0098051655569564248 0.00024186444285947254 0.011606189905705704 -0.0056436071407113863 0.011668755855081701 0.00099906385110014491 0.013767266367162394
leaf_count=18761 1239 5401 1807 10331 3660 999 13802
internal_value=0 -0.608107 0.303318 -0.856878 1.23462 0.57613 1.33128
internal_count=56000 36300 7208 29092 19700 2238 17462
shrinkage=0.01


Tree=61
num_leaves=8
num_cat=0
split_feature=10 1 8 10 7 1 10
split_gain=9142.44 744.487 826.116 258.553 192.189 99.0281 26.462
threshold=3.0611767308408308e-05 23.500000000000004 0.041645516074450085 0.00028477047363546668 0.28531524341580211 67.500000000000014 0.0018359490363834689
decision_type=2 2 2 2 2 2 2
left_child=1 2 -1 5 -3 -2 -5
right_child=3 4 -4 6 -6 -7 -8
leaf_value=0.010292586617716249 0.009732788325338108 -0.0056160632171124636 -0.0044742529251582839 0.011605466104852134 -0.010238164153625287 0.00098919597074224137 0.01371285212400462
leaf_count=1771 1239 5389 15260 3660 13880 999 13802
internal_value=0 -0.603205 -0.288062 1.22868 -0.888478 0.571219 1.32559
internal_count=56000 36300 17031 19700 19269 2238 17462
shrinkage=0.01


Tree=62
num_leaves=8
num_cat=0
split_feature=10 21 2 0 10 2 10
split_gain=8997.46 1941.44 2914.29 399.699 257.523 98.4141 26.5616
threshold=3.0611767308408308e-05 5.0000000000000009 1.5000000000000002 23.500000000000004 0.00028477047363546668 1.5000000000000002 0.0018359490363834689
decision_type=2 2 2 2 2 2 2
left_child=1 2 -1 -3 5 -2 -6
right_child=4 3 -4 -5 6 -7 -8
leaf_value=-0.014551809589171114 -0.017022270687293894 -0.00076453843377817412 -0.0019229103110131999 0.013014458960442577 0.011542884899747552 0.0064959129253314551 0.013659361611683501
leaf_count=15615 77 1346 17008 2331 3660 2161 13802
internal_value=0 -0.598194 -0.767593 0.787964 1.22281 0.566357 1.31999
internal_count=56000 36300 32623 3677 19700 2238 17462
shrinkage=0.01


Tree=63
num_leaves=8
num_cat=0
split_feature=2 21 19 2 2 20 19
split_gain=8493.57 2475.58 1555.48 1548.89 375.143 373.654 29.8227
threshold=4.5000000000000009 5.0000000000000009 6.2277682249810669e-12 1.5000000000000002 41.500000000000007 63.500000000000007 6.4148456646799824e-11
decision_type=2 2 2 2 2 2 2
left_child=1 3 4 -1 -2 -3 -4
right_child=2 5 6 -5 -6 -7 -8
leaf_value=-0.014506515008302025 0.0001112590499245108 -0.003767798045290845 0.010818471747897367 -0.0039049060358524487 0.0090162854461293181 0.011800779395021364 0.013605677179242576
leaf_count=15708 6845 811 2101 10373 2840 2682 14640
internal_value=0 -0.777977 0.890259 -1.01582 0.262534 0.811243 1.32386
internal_count=56000 29574 26426 26081 9685 3493 16741
shrinkage=0.01


Tree=64
num_leaves=8
num_cat=0
split_feature=2 21 2 13 0 2 13
split_gain=8355.37 2310.12 1818.63 962.635 385.971 221.223 73.2922
threshold=5.5000000000000009 5.0000000000000009 1.5000000000000002 0.00057249178215782305 23.500000000000004 53.500000000000007 0.0061357703395580167
decision_type=2 2 2 2 2 2 2
left_child=1 2 -1 5 -3 -2 -5
right_child=3 4 -4 6 -6 -7 -8
leaf_value=-0.01444170551863337 0.00099138007172729558 -0.0011384578789159689 -0.0033378262338237953 0.0099711559037162674 0.012901752798240832 0.0099842478035046932 0.013027207604473231
leaf_count=15708 5246 1212 11680 5207 2318 1485 13144
internal_value=0 -0.73367 -0.954005 0.931957 0.798516 0.290779 1.21108
internal_count=56000 30918 27388 25082 3530 6731 18351
shrinkage=0.01


Tree=65
num_leaves=8
num_cat=0
split_feature=10 21 19 20 10 1 10
split_gain=8676.89 1890.24 1187.25 340.323 271.045 122.013 45.0541
threshold=2.8349054794325665e-05 5.0000000000000009 6.913361429853834e-11 63.500000000000007 0.00015823048025117 64.500000000000014 0.00081624767488029713
decision_type=2 2 2 2 2 2 2
left_child=1 2 -1 -3 5 -2 -6
right_child=4 3 -4 -5 6 -7 -8
leaf_value=-0.0083673851070805959 0.0094667831565803211 -0.0029802870864033618 0.013464260316307245 0.011481346691327774 0.010195765447040919 -0.0017664844206556961 0.013362395037449
leaf_count=31509 880 864 1110 2740 2475 763 15659
internal_value=0 -0.592738 -0.759512 0.793149 1.20464 0.409348 1.28989
internal_count=56000 36223 32619 3604 19777 1643 18134
shrinkage=0.01


Tree=66
num_leaves=8
num_cat=0
split_feature=10 2 2 1 10 1 10
split_gain=8541.85 1867.79 513.94 209.098 158.083 97.1974 16.4918
threshold=5.2917097900061391e-05 3.5000000000000004 53.500000000000007 10.500000000000002 0.00042980473372859778 93.500000000000014 0.0018359490363834689
decision_type=2 2 2 2 2 2 2
left_child=1 3 -3 -1 5 -2 -6
right_child=4 2 -4 -5 6 -7 -8
leaf_value=-0.0056367605079061288 0.010546847286797644 -0.00058767338375945589 0.011077942152789289 -0.009903221118781393 0.011650923241966054 0.0015776807688488072 0.013467229593142494
leaf_count=7019 1473 7945 1954 19912 3065 820 13812
internal_value=0 -0.572284 0.166513 -0.876689 1.23255 0.716556 1.31257
internal_count=56000 36830 9899 26931 19170 2293 16877
shrinkage=0.01


Tree=67
num_leaves=8
num_cat=0
split_feature=10 2 2 19 10 1 10
split_gain=8409.73 1839.96 391.61 322.186 157.772 95.9381 16.573
threshold=5.2917097900061391e-05 7.5000000000000009 1.5000000000000002 6.7865439454166045e-12 0.00042980473372859778 93.500000000000014 0.0018359490363834689
decision_type=2 2 2 2 2 2 2
left_child=1 2 -1 -3 5 -2 -6
right_child=4 3 -4 -5 6 -7 -8
leaf_value=-0.0098947670911207451 0.010480277006998757 0.0020563694893037865 -0.0049770041740237079 0.014009857368236931 0.011592303601276456 0.0015623643451696115 0.013417712523556048
leaf_count=18798 1473 5085 11755 1192 3065 820 13812
internal_value=0 -0.567731 -0.792767 0.418767 1.22709 0.711117 1.30741
internal_count=56000 36830 30553 6277 19170 2293 16877
shrinkage=0.01


Tree=68
num_leaves=8
num_cat=0
split_feature=10 21 2 0 10 1 10
split_gain=8279.77 1825.38 2900.53 363.149 157.474 94.6991 16.6565
threshold=5.2917097900061391e-05 5.0000000000000009 2.5000000000000004 23.500000000000004 0.00042980473372859778 93.500000000000014 0.0018359490363834689
decision_type=2 2 2 2 2 2 2
left_child=1 2 -1 -3 5 -2 -6
right_child=4 3 -4 -5 6 -7 -8
leaf_value=-0.012327982723282982 0.010414377342114667 -0.00043607794412968908 0.00047890366772214649 0.012884642125083896 0.011534318699773543 0.0015471940061024315 0.013369002847080702
leaf_count=21086 1473 1300 12136 2308 3065 820 13812
internal_value=0 -0.56319 -0.72527 0.79836 1.22171 0.705728 1.30232
internal_count=56000 36830 33222 3608 19170 2293 16877
shrinkage=0.01


Tree=69
num_leaves=8
num_cat=0
split_feature=10 2 2 2 10 1 10
split_gain=8154.06 1792.22 385.835 318.097 157.187 93.4798 16.742
threshold=5.2917097900061391e-05 7.5000000000000009 1.5000000000000002 80.500000000000014 0.00042980473372859778 93.500000000000014 0.0018359490363834689
decision_type=2 2 2 2 2 2 2
left_child=1 2 -1 -3 5 -2 -6
right_child=4 3 -4 -5 6 -7 -8
leaf_value=-0.0097852615253012296 0.010349132203784157 0.0016776723824708077 -0.0048920392883613842 0.01252997927969284 0.011476952950971508 0.001532168389356629 0.013321081299404571
leaf_count=18798 1473 4803 11755 1474 3065 820 13812
internal_value=0 -0.559117 -0.782299 0.414398 1.2164 0.700388 1.29731
internal_count=56000 36830 30553 6277 19170 2293 16877
shrinkage=0.01


Tree=70
num_leaves=8
num_cat=0
split_feature=10 2 21 2 10 2 10
split_gain=7997.4 1905.4 2530.91 389.648 72.5223 40.2151 5.33809
threshold=0.00011174315588923323 5.5000000000000009 5.0000000000000009 70.500000000000014 0.00081624767488029713 1.5000000000000002 0.0018359490363834689
decision_type=2 2 2 2 2 2 2
left_child=1 2 -1 -3 5 -2 -6
right_child=4 3 -4 -5 6 -7 -8
leaf_value=-0.010436193291951629 -0.01821975982416834 0.00092092893441676597 0.0081541153215446988 0.011741486263437236 0.01196288522624352 0.0095420581216272369 0.013279020296746703
leaf_count=25944 21 6278 3461 1799 1861 2796 13840
internal_value=0 -0.534636 -0.799136 0.32441 1.24833 0.929818 1.31184
internal_count=56000 37482 29405 8077 18518 2817 15701
shrinkage=0.01


Tree=71
num_leaves=8
num_cat=0
split_feature=10 2 21 19 10 1 10
split_gain=7877.81 1875.59 2389.31 311.896 72.7034 59.026 5.37301
threshold=0.00011174315588923323 7.5000000000000009 5.0000000000000009 2.0060951635837099e-11 0.00081624767488029713 100.50000000000001 0.0018359490363834689
decision_type=2 2 2 2 2 2 2
left_child=1 2 -1 -3 5 -2 -6
right_child=4 3 -4 -5 6 -7 -8
leaf_value=-0.0099275661317811247 0.011519684448253281 0.0022995205531230771 0.008000136110638505 0.013954145459500156 0.01190887498863432 0.0048872806212303544 0.01323268812273576
leaf_count=27217 1895 5548 3497 1220 1861 922 13840
internal_value=0 -0.530763 -0.765435 0.42496 1.24323 0.923831 1.3071
internal_count=56000 37482 30714 6768 18518 2817 15701
shrinkage=0.01


Tree=72
num_leaves=8
num_cat=0
split_feature=10 21 7 20 10 1 10
split_gain=7760.16 1695.47 817.287 374.86 72.865 58.5419 5.40862
threshold=0.00011174315588923323 5.0000000000000009 0.28531524341580211 199.00000000000003 0.00081624767488029713 100.50000000000001 0.0018359490363834689
decision_type=2 2 2 2 2 2 2
left_child=1 2 -1 -3 5 -2 -6
right_child=4 3 -4 -5 6 -7 -8
leaf_value=-0.0020058116929226773 0.01145940772283293 9.1746949680803126e-05 -0.0091003786350690435 0.013282791822839646 0.011855474129414234 0.0048456201010605941 0.01318709261084009
leaf_count=10249 1895 1484 23587 2162 1861 922 13840
internal_value=0 -0.52689 -0.682446 0.779987 1.23821 0.917951 1.30243
internal_count=56000 37482 33836 3646 18518 2817 15701
shrinkage=0.01


Tree=73
num_leaves=8
num_cat=0
split_feature=10 2 2 2 10 1 10
split_gain=7643.05 1849.93 379.903 334.215 73.031 58.1706 5.44492
threshold=0.00011174315588923323 5.5000000000000009 70.500000000000014 1.5000000000000002 0.00081624767488029713 154.50000000000003 0.0018359490363834689
decision_type=2 2 2 2 2 2 2
left_child=1 3 -3 -1 5 -2 -6
right_child=4 2 -4 -5 6 -7 -8
leaf_value=-0.0096238776179482476 0.010843097885339366 0.00094179181072250138 0.011641486855430797 -0.0048793777624860663 0.01180266766557307 0.0034004205160221234 0.013142217524213072
leaf_count=18867 2205 6278 1799 10538 1861 612 13840
internal_value=0 -0.522722 0.323343 -0.78544 1.23325 0.912123 1.29783
internal_count=56000 37482 8077 29405 18518 2817 15701
shrinkage=0.01


Tree=74
num_leaves=8
num_cat=0
split_feature=10 2 21 2 10 1 10
split_gain=7527.71 1821.48 2619.75 476.596 73.2075 57.7876 5.4819
threshold=0.00011174315588923323 3.5000000000000004 5.0000000000000009 33.500000000000007 0.00081624767488029713 100.50000000000001 0.0018359490363834689
decision_type=2 2 2 2 2 2 2
left_child=1 2 -1 -3 5 -2 -6
right_child=4 3 -4 -5 6 -7 -8
leaf_value=-0.011073468450753542 0.011343645478643135 -0.00077575551498801874 0.0081562914688576901 0.0089699937399599604 0.011750441009808307 0.0047547332377525396 0.013098046692608691
leaf_count=23562 1895 7632 3406 2882 1861 922 13840
internal_value=0 -0.518541 -0.830658 0.184073 1.22836 0.906331 1.2933
internal_count=56000 37482 26968 10514 18518 2817 15701
shrinkage=0.01


Tree=75
num_leaves=8
num_cat=0
split_feature=2 21 2 17 0 1 17
split_gain=7082.37 2292.89 1489.19 1091.11 356.444 227.598 83.8312
threshold=4.5000000000000009 5.0000000000000009 1.5000000000000002 0.00054137110608098895 9.5000000000000018 19.500000000000004 0.0051819308982480562
decision_type=2 2 2 2 2 2 2
left_child=1 2 -1 5 -3 -2 -5
right_child=3 4 -4 6 -6 -7 -8
leaf_value=-0.013973272344527372 0.0055214901844214941 -0.0037936891844447341 -0.0033703766396977475 0.0087845236645247536 0.011703847946008757 -0.0015615650384207028 0.012338216947120893
leaf_count=15742 3775 775 10331 4175 2694 3786 14722
internal_value=0 -0.721324 -0.958082 0.83405 0.815788 0.20011 1.1488
internal_count=56000 29542 26073 26458 3469 7561 18897
shrinkage=0.01


Tree=76
num_leaves=8
num_cat=0
split_feature=19 21 2 2 0 19 15
split_gain=7058.74 1752.21 2853.72 402.626 320.16 68.9918 0.164975
threshold=6.2277682249810669e-12 5.0000000000000009 1.5000000000000002 1.5000000000000002 40.500000000000007 8.7077101722748606e-11 0.0088643225709768778
decision_type=2 2 2 2 2 2 2
left_child=1 2 -1 6 -3 -5 -2
right_child=3 4 -4 5 -6 -7 -8
leaf_value=-0.013899190185341095 -0.016739397678520437 0.0018993451979258103 -0.0012804344655353503 0.0090873087855419567 0.013727164171321389 0.012998059951579582 -0.014290528277652419
leaf_count=15485 38 1816 18331 2649 1987 15473 221
internal_value=0 -0.502768 -0.6658 1.19525 0.800698 1.23861 -1.47046
internal_count=56000 37619 33816 18381 3803 18122 259
shrinkage=0.01


Tree=77
num_leaves=8
num_cat=0
split_feature=10 2 19 2 10 1 10
split_gain=7250.68 1706.53 412.898 249.453 90.4986 65.1828 6.42979
threshold=8.3149564349942429e-05 4.5000000000000009 1.4193139568774177e-11 1.5000000000000002 0.00081624767488029713 78.500000000000014 0.0018359490363834689
decision_type=2 2 2 2 2 2 2
left_child=1 3 -3 -1 5 -2 -6
right_child=4 2 -4 -5 6 -7 -8
leaf_value=-0.0093977818040881355 0.011316353288708525 0.00068927827658912463 0.013315424520391542 -0.0051144600484433799 0.011501375162764799 0.0048506645694393622 0.012958542465902485
leaf_count=18848 1856 7588 1334 9420 1887 1220 13847
internal_value=0 -0.51547 0.243518 -0.790717 1.20186 0.862144 1.27775
internal_count=56000 37190 8922 28268 18810 3076 15734
shrinkage=0.01


Tree=78
num_leaves=8
num_cat=0
split_feature=19 21 2 2 0 19 15
split_gain=6851.28 1732.48 2804.03 393.426 315.957 69.1974 0.166116
threshold=6.2277682249810669e-12 5.0000000000000009 1.5000000000000002 1.5000000000000002 40.500000000000007 8.7077101722748606e-11 0.0088643225709768778
decision_type=2 2 2 2 2 2 2
left_child=1 2 -1 6 -3 -5 -2
right_child=3 4 -4 5 -6 -7 -8
leaf_value=-0.013809699295508021 -0.016636339031328225 0.0019424472889650558 -0.0012602677270629528 0.0089753002130845919 0.013695999288869306 0.012908342842704455 -0.01418565651745321
leaf_count=15485 38 1816 18331 2649 1987 15473 221
internal_value=0 -0.495229 -0.658094 1.18583 0.800959 1.22902 -1.46013
internal_count=56000 37619 33816 18381 3803 18122 259
shrinkage=0.01


Tree=79
num_leaves=8
num_cat=0
split_feature=10 21 19 20 10 1 10
split_gain=7051.45 1644.61 1118.5 332.094 90.3992 64.4216 6.45659
threshold=8.3149564349942429e-05 5.0000000000000009 2.8450039856738654e-11 199.00000000000003 0.00081624767488029713 78.500000000000014 0.0018359490363834689
decision_type=2 2 2 2 2 2 2
left_child=1 2 -1 -3 5 -2 -6
right_child=4 3 -4 -5 6 -7 -8
leaf_value=-0.0075260170192211978 0.011223127862757514 0.00044623786156753692 0.011088003951723656 0.012900036870538027 0.011412937356438327 0.0047778050231453107 0.012880620566984431
leaf_count=32027 1856 1463 1507 2193 1887 1220 13847
internal_value=0 -0.508386 -0.665589 0.778561 1.19326 0.852859 1.26979
internal_count=56000 37190 33534 3656 18810 3076 15734
shrinkage=0.01


Tree=80
num_leaves=8
num_cat=0
split_feature=10 2 2 2 10 1 10
split_gain=6936.87 1574.11 346.573 273.78 189.516 90.1666 17.567
threshold=4.2363441990762872e-05 5.5000000000000009 70.500000000000014 1.5000000000000002 0.00042980473372859778 124.50000000000001 0.0018359490363834689
decision_type=2 2 2 2 2 2 2
left_child=1 3 -3 -1 5 -2 -6
right_child=4 2 -4 -5 6 -7 -8
leaf_value=-0.0092608462433424864 0.0087249682873685366 0.0007582661746929429 0.011607752598153425 -0.0049054551878803176 0.010919210502382927 -0.00015073037250150741 0.012853643563538526
leaf_count=18839 1819 5799 1584 10380 3094 691 13794
internal_value=0 -0.522824 0.29859 -0.763214 1.15059 0.608821 1.24799
internal_count=56000 36602 7383 29219 19398 2510 16888
shrinkage=0.01


Tree=81
num_leaves=8
num_cat=0
split_feature=10 21 19 0 10 1 10
split_gain=6832.65 1618.61 1074.99 339.737 116.591 80.7142 4.99362
threshold=7.5837475468918427e-05 5.0000000000000009 2.8450039856738654e-11 9.5000000000000018 0.00081624767488029713 123.50000000000001 0.0018359490363834689
decision_type=2 2 2 2 2 2 2
left_child=1 2 -1 -3 5 -2 -6
right_child=4 3 -4 -5 6 -7 -8
leaf_value=-0.0074781878376252329 0.010248784133856874 -0.0028643324693600459 0.011051987347678299 0.011284079200049065 0.011507894205111256 0.0025886359622261132 0.012813674497315462
leaf_count=31989 2305 917 1466 2764 1884 881 13794
internal_value=0 -0.505741 -0.663269 0.765964 1.17567 0.79684 1.26504
internal_count=56000 37136 33455 3681 18864 3186 15678
shrinkage=0.01


Tree=82
num_leaves=8
num_cat=0
split_feature=10 2 2 2 10 1 10
split_gain=6730.45 1551.44 338.159 275.126 188.587 87.9858 17.7281
threshold=4.2363441990762872e-05 5.5000000000000009 70.500000000000014 1.5000000000000002 0.00042980473372859778 124.50000000000001 0.0018359490363834689
decision_type=2 2 2 2 2 2 2
left_child=1 3 -3 -1 5 -2 -6
right_child=4 2 -4 -5 6 -7 -8
leaf_value=-0.0091838161628382091 0.0086193542356393978 0.00080882873681437973 0.011540546089421618 -0.0048072942915959082 0.010820538268765827 -0.0001578485043568433 0.012774301275490117
leaf_count=18839 1819 5799 1584 10380 3094 691 13794
internal_value=0 -0.514791 0.300742 -0.75448 1.14141 0.600099 1.23957
internal_count=56000 36602 7383 29219 19398 2510 16888
shrinkage=0.01


Tree=83
num_leaves=8
num_cat=0
split_feature=10 2 21 19 10 1 10
split_gain=6630.66 1608.9 2372.22 379.159 116.779 79.2489 5.0555
threshold=7.5837475468918427e-05 4.5000000000000009 5.0000000000000009 1.4193139568774177e-11 0.00081624767488029713 123.50000000000001 0.0018359490363834689
decision_type=2 2 2 2 2 2 2
left_child=1 2 -1 -3 5 -2 -6
right_child=4 3 -4 -5 6 -7 -8
leaf_value=-0.010234540557919431 0.010139845146063056 0.00080277305338477328 0.0079534654789183354 0.013155362675831273 0.011414597626908871 0.0025338513912774962 0.012735510160027422
leaf_count=24898 2305 7483 3457 1298 1884 881 13794
internal_value=0 -0.497906 -0.766536 0.246606 1.16669 0.786539 1.257
internal_count=56000 37136 28355 8781 18864 3186 15678
shrinkage=0.01


Tree=84
num_leaves=8
num_cat=0
split_feature=10 2 21 2 10 2 10
split_gain=6533.17 1586.7 2677.11 506.327 116.942 56.6328 5.09726
threshold=7.5837475468918427e-05 2.5000000000000004 5.0000000000000009 43.500000000000007 0.00081624767488029713 1.5000000000000002 0.0018359490363834689
decision_type=2 2 2 2 2 2 2
left_child=1 2 -1 -3 5 -2 -6
right_child=4 3 -4 -5 6 -7 -8
leaf_value=-0.011624188952649162 -0.017965568746484053 -0.0011553827979771103 0.0082480901762077789 0.0094589571178538365 0.011367301088532259 0.0081497035575532773 0.012697289089552626
leaf_count=21080 34 10357 3355 2344 1884 3152 13794
internal_value=0 -0.494409 -0.840593 0.0770392 1.16224 0.781312 1.25305
internal_count=56000 37136 24435 12701 18864 3186 15678
shrinkage=0.01


Tree=85
num_leaves=8
num_cat=0
split_feature=10 2 21 2 10 2 10
split_gain=6329.27 1636.92 2642.91 495.968 99.629 49.1737 6.00375
threshold=8.3149564349942429e-05 2.5000000000000004 5.0000000000000009 32.500000000000007 0.0007800818350565111 1.5000000000000002 0.0019513416467752582
decision_type=2 2 2 2 2 2 2
left_child=1 2 -1 -3 5 -2 -6
right_child=4 3 -4 -5 6 -7 -8
leaf_value=-0.01148498479241687 -0.018018917449646458 -0.0011319282864692721 0.0083292662922593071 0.0085839725529432715 0.011291341323448905 0.0082946612583204137 0.012675649534561359
leaf_count=21124 29 10042 3334 2858 2077 2924 13612
internal_value=0 -0.474437 -0.828824 0.0996099 1.16688 0.798041 1.24841
internal_count=56000 37358 24458 12900 18642 2953 15689
shrinkage=0.01


Tree=86
num_leaves=8
num_cat=0
split_feature=10 21 19 0 10 1 10
split_gain=6237.01 1496.37 1007.91 329.151 99.8566 67.7391 6.05304
threshold=8.3149564349942429e-05 5.0000000000000009 2.8450039856738654e-11 40.500000000000007 0.0007800818350565111 83.500000000000014 0.0019513416467752582
decision_type=2 2 2 2 2 2 2
left_child=1 2 -1 -3 5 -2 -6
right_child=4 3 -4 -5 6 -7 -8
leaf_value=-0.0070656794818012248 0.010716287580677549 0.0010835667492563972 0.010629456601086336 0.01333138826965812 0.011244769994034074 0.003866691452036268 0.012638649262888591
leaf_count=32172 1828 1673 1529 1984 2077 1125 13612
internal_value=0 -0.471127 -0.622844 0.758333 1.16254 0.792766 1.24456
internal_count=56000 37358 33701 3657 18642 2953 15689
shrinkage=0.01


Tree=87
num_leaves=8
num_cat=0
split_feature=2 21 2 19 0 2 19
split_gain=6024.78 1939.3 1687.24 999.052 327.945 243.639 20.7263
threshold=5.5000000000000009 5.0000000000000009 1.5000000000000002 7.2986349999177267e-12 9.5000000000000018 105.50000000000001 8.7077101722748606e-11
decision_type=2 2 2 2 2 2 2
left_child=1 2 -1 5 -3 -2 -5
right_child=3 4 -4 6 -6 -7 -8
leaf_value=-0.013511200572122191 0.0016522777416321352 -0.0035208125398286105 -0.0024312365950301344 0.010187787030453038 0.011290118846789807 0.011380680908799243 0.01259274084961984
leaf_count=15818 7331 786 11693 2258 2701 1398 14015
internal_value=0 -0.635337 -0.849374 0.839117 0.783996 0.308052 1.22328
internal_count=56000 30998 27511 25002 3487 8729 16273
shrinkage=0.01


Tree=88
num_leaves=8
num_cat=0
split_feature=10 2 21 2 10 1 10
split_gain=6070.63 1600.56 2536.65 477.458 100.091 66.9393 6.10614
threshold=8.3149564349942429e-05 2.5000000000000004 5.0000000000000009 32.500000000000007 0.0007800818350565111 83.500000000000014 0.0019513416467752582
decision_type=2 2 2 2 2 2 2
left_child=1 2 -1 -3 5 -2 -6
right_child=4 3 -4 -5 6 -7 -8
leaf_value=-0.011350186270420535 0.010625493369239363 -0.0010656377482465525 0.0081244152124186047 0.0084836707511854754 0.011164954623455729 0.0037974896423840715 0.012572337011499277
leaf_count=21124 1828 10042 3334 2858 2077 1125 13612
internal_value=0 -0.464952 -0.818599 0.102233 1.15483 0.783611 1.2377
internal_count=56000 37358 24458 12900 18642 2953 15689
shrinkage=0.01


Tree=89
num_leaves=8
num_cat=0
split_feature=10 21 19 0 10 1 10
split_gain=5982.59 1421.67 970.239 322.002 100.295 66.3697 6.15739
threshold=8.3149564349942429e-05 5.0000000000000009 2.8450039856738654e-11 40.500000000000007 0.0007800818350565111 83.500000000000014 0.0019513416467752582
decision_type=2 2 2 2 2 2 2
left_child=1 2 -1 -3 5 -2 -6
right_child=4 3 -4 -5 6 -7 -8
leaf_value=-0.0069305099009247407 0.010572646896186864 0.00097098019023226405 0.01050361488995312 0.013111470482524243 0.011119541795190941 0.0037642411648208581 0.012536835548406551
leaf_count=32172 1828 1673 1529 1984 2077 1125 13612
internal_value=0 -0.461721 -0.610523 0.739257 1.15062 0.778504 1.23399
internal_count=56000 37358 33701 3657 18642 2953 15689
shrinkage=0.01


Tree=90
num_leaves=8
num_cat=0
split_feature=10 2 21 19 10 19 10
split_gain=6026.78 1570.68 2455.01 467.519 65.8405 21.9823 7.05422
threshold=0.00011174315588923323 2.5000000000000004 5.0000000000000009 2.8450039856738654e-11 0.00068526528403394427 1.293305235982132e-10 0.0018359490363834689
decision_type=2 2 2 2 2 2 2
left_child=1 2 -1 -3 5 -2 -6
right_child=4 3 -4 -5 6 -7 -8
leaf_value=-0.011302333657678165 0.0068644537207944445 -0.00035125198343195795 0.0078646287987478546 0.012590865823287568 0.011019492904303268 0.011396976286922779 0.012495088316592372
leaf_count=21090 1645 11653 3348 1432 2197 841 13794
internal_value=0 -0.462343 -0.816092 0.0944204 1.16614 0.830845 1.22807
internal_count=56000 37523 24438 13085 18477 2486 15991
shrinkage=0.01


Tree=91
num_leaves=8
num_cat=0
split_feature=19 2 21 2 2 19 20
split_gain=5725.67 1514.81 2416.49 398.652 338.907 66.2275 0.471969
threshold=6.7865439454166045e-12 2.5000000000000004 5.0000000000000009 16.500000000000004 1.5000000000000002 1.113991673957838e-10 532.50000000000011
decision_type=2 2 2 2 2 2 2
left_child=1 2 -1 -3 6 -6 -2
right_child=4 3 -4 -5 5 -7 -8
leaf_value=-0.011237710041166811 -0.011265289737455726 -0.0017547486657102909 0.0077934189218495879 0.0056890004559407492 0.0086003289123897982 0.012475382391354858 -0.014568735690625664
leaf_count=20783 39 8688 3363 4881 2826 15208 212
internal_value=0 -0.451462 -0.805605 0.0870261 1.13911 1.18113 -1.40856
internal_count=56000 37715 24146 13569 18285 18034 251
shrinkage=0.01


Tree=92
num_leaves=8
num_cat=0
split_feature=10 2 21 19 10 1 10
split_gain=5863.05 1525.95 2384.58 454.223 66.3237 55.9808 7.13745
threshold=0.00011174315588923323 2.5000000000000004 5.0000000000000009 2.8450039856738654e-11 0.00068526528403394427 124.50000000000001 0.0018359490363834689
decision_type=2 2 2 2 2 2 2
left_child=1 2 -1 -3 5 -2 -6
right_child=4 3 -4 -5 6 -7 -8
leaf_value=-0.011198900818071145 0.010375832104767016 -0.00035421949590029779 0.007729010410353781 0.012450523322590546 0.010937456339177925 0.0029532707875504108 0.012429889688178659
leaf_count=21090 1829 11653 3348 1432 2197 657 13794
internal_value=0 -0.456382 -0.807579 0.0918382 1.1585 0.820931 1.22125
internal_count=56000 37523 24438 13085 18477 2486 15991
shrinkage=0.01


Tree=93
num_leaves=8
num_cat=0
split_feature=10 2 21 19 10 1 10
split_gain=5778.99 1505.38 2350.07 447.21 66.548 55.4796 7.20229
threshold=0.00011174315588923323 2.5000000000000004 5.0000000000000009 2.8450039856738654e-11 0.00068526528403394427 124.50000000000001 0.0018359490363834689
decision_type=2 2 2 2 2 2 2
left_child=1 2 -1 -3 5 -2 -6
right_child=4 3 -4 -5 6 -7 -8
leaf_value=-0.011147299637966438 0.01032364259471219 -0.00035069071821987563 0.0076622541874335594 0.012379515899750377 0.010892704907234643 0.0029265280523379372 0.012396207122500781
leaf_count=21090 1829 11653 3348 1432 2197 657 13794
internal_value=0 -0.453219 -0.803324 0.0909646 1.15453 0.815838 1.2177
internal_count=56000 37523 24438 13085 18477 2486 15991
shrinkage=0.01


Tree=94
num_leaves=8
num_cat=0
split_feature=10 2 19 11 10 19 10
split_gain=5696.27 1485.13 440.324 132.724 66.7731 21.6943 7.26868
threshold=0.00011174315588923323 2.5000000000000004 2.8450039856738654e-11 97.000000000000014 0.00068526528403394427 1.293305235982132e-10 0.0019513416467752582
decision_type=2 2 2 2 2 2 2
left_child=1 3 -3 -1 5 -2 -6
right_child=4 2 -4 -5 6 -7 -8
leaf_value=-0.0052506108570108305 0.0066696696227502572 -0.00034719706801899537 0.012309391221659407 -0.0090038973744580517 0.010901351723841664 0.011213845315174154 0.012372501392789812
leaf_count=6333 1645 11653 1432 18105 2367 841 13624
internal_value=0 -0.450082 0.0900995 -0.799107 1.1506 0.810781 1.21419
internal_count=56000 37523 13085 24438 18477 2486 15991
shrinkage=0.01


Tree=95
num_leaves=8
num_cat=0
split_feature=10 2 2 1 10 1 10
split_gain=5613.55 1504.66 478.209 130.199 72.17 55.6634 5.06811
threshold=0.00011174315588923323 2.5000000000000004 42.500000000000007 27.500000000000004 0.00081624767488029713 154.50000000000003 0.0038194028737004409
decision_type=2 2 2 2 2 2 2
left_child=1 3 -3 -1 5 -2 -6
right_child=4 2 -4 -5 6 -7 -8
leaf_value=-0.0063177250935772698 0.0099495594044426983 -0.0009660418768356366 0.0090707197740005994 -0.0096318089040362421 0.011392979715804134 0.0024924954312789942 0.012419944457708599
leaf_count=11524 2160 10595 2551 12822 4108 617 11623
internal_value=0 -0.448871 0.0923808 -0.802719 1.14378 0.811192 1.21436
internal_count=56000 37492 13146 24346 18508 2777 15731
shrinkage=0.01


Tree=96
num_leaves=8
num_cat=0
split_feature=10 2 21 2 10 2 10
split_gain=5531.72 1481.84 2056.52 391.785 72.4269 37.2308 5.11398
threshold=0.00011174315588923323 3.5000000000000004 5.0000000000000009 53.500000000000007 0.00081624767488029713 1.5000000000000002 0.0038194028737004409
decision_type=2 2 2 2 2 2 2
left_child=1 2 -1 -3 5 -2 -6
right_child=4 3 -4 -5 6 -7 -8
leaf_value=-0.010099752004001985 -0.018435207284527768 -0.00011366020329544407 0.0072665049483304871 0.0097801993368335748 0.011353572879435201 0.0083228281783328389 0.012388417574721014
leaf_count=23506 21 8417 3373 2196 4108 2756 11623
internal_value=0 -0.445323 -0.746475 0.182308 1.13992 0.806198 1.21098
internal_count=56000 37492 26879 10613 18508 2777 15731
shrinkage=0.01


Tree=97
num_leaves=8
num_cat=0
split_feature=10 2 2 1 10 1 10
split_gain=5452.62 1466.28 460.78 128.274 72.7134 55.5977 5.16035
threshold=0.00011174315588923323 2.5000000000000004 42.500000000000007 27.500000000000004 0.00081624767488029713 100.50000000000001 0.0038194028737004409
decision_type=2 2 2 2 2 2 2
left_child=1 3 -3 -1 5 -2 -6
right_child=4 2 -4 -5 6 -7 -8
leaf_value=-0.0062341019642527711 0.010461950590003813 -0.00093505862602467568 0.0089347755124158709 -0.0095358959100449413 0.011314530216854454 0.003768585329720723 0.012357339573316067
leaf_count=11524 1849 10595 2551 12822 4108 928 11623
internal_value=0 -0.44223 0.0918296 -0.793499 1.13608 0.801171 1.20764
internal_count=56000 37492 13146 24346 18508 2777 15731
shrinkage=0.01


Tree=98
num_leaves=8
num_cat=0
split_feature=10 2 2 1 10 1 10
split_gain=5373.87 1465.7 458.355 127.879 57.5366 47.8069 5.20722
threshold=0.00013200606456677458 2.5000000000000004 42.500000000000007 27.500000000000004 0.00081624767488029713 154.50000000000003 0.0038194028737004409
decision_type=2 2 2 2 2 2 2
left_child=1 3 -3 -1 5 -2 -6
right_child=4 2 -4 -5 6 -7 -8
leaf_value=-0.0061816574722171006 0.010076541938993894 -0.00090100821544394308 0.0088581694763309304 -0.009482579496063348 0.011275843333016233 0.0028502165198560736 0.012326702813639874
leaf_count=11530 2028 10699 2613 12827 4108 572 11623
internal_value=0 -0.434949 0.0947005 -0.788036 1.14226 0.830619 1.20434
internal_count=56000 37669 13312 24357 18331 2600 15731
shrinkage=0.01


Tree=99
num_leaves=8
num_cat=0
split_feature=10 2 2 1 10 1 10
split_gain=5296.19 1442.6 450.485 126.973 57.7874 47.3917 5.25459
threshold=0.00013200606456677458 2.5000000000000004 53.500000000000007 27.500000000000004 0.00081624767488029713 154.50000000000003 0.0038194028737004409
decision_type=2 2 2 2 2 2 2
left_child=1 3 -3 -1 5 -2 -6
right_child=4 2 -4 -5 6 -7 -8
leaf_value=-0.006132732959828773 0.010026694352882486 -0.00072158900936091972 0.0096002930895827017 -0.0094270224647705642 0.011237503906990513 0.0028245960380937547 0.012296497969236287
leaf_count=11530 2028 11067 2245 12827 4108 572 11623
internal_value=0 -0.431508 0.0938022 -0.782633 1.13856 0.825688 1.20108
internal_count=56000 37669 13312 24357 18331 2600 15731
shrinkage=0.01


Tree=100
num_leaves=8
num_cat=0
split_feature=10 2 1 2 10 1 10
split_gain=5221.32 1377.18 338.39 255.39 69.4996 51.9298 5.08973
threshold=0.00011174315588923323 4.5000000000000009 30.500000000000004 1.5000000000000002 0.00081624767488029713 123.50000000000001 0.0038194028737004409
decision_type=2 2 2 2 2 2 2
left_child=1 3 -3 -1 5 -2 -6
right_child=4 2 -4 -5 6 -7 -8
leaf_value=-0.0085262504725264927 0.010042834321444595 0.0056779063983666703 -0.0023842408588557922 -0.0040695812517128746 0.011216842347032525 0.0032594978688215387 0.0122633322786408
leaf_count=18817 2069 5494 3568 9554 4104 762 11632
internal_value=0 -0.428901 0.246632 -0.691926 1.12665 0.80075 1.19812
internal_count=56000 37433 9062 28371 18567 2831 15736
shrinkage=0.01


Tree=101
num_leaves=8
num_cat=0
split_feature=19 2 2 2 2 19 15
split_gain=4996.47 1333.94 290.17 286.37 218.075 57.0492 0.443845
threshold=7.2986349999177267e-12 5.5000000000000009 1.5000000000000002 1.5000000000000002 132.50000000000003 8.7077101722748606e-11 0.043848309757369995
decision_type=2 2 2 2 2 2 2
left_child=1 3 6 -1 -3 -4 -2
right_child=2 4 5 -5 -6 -7 -8
leaf_value=-0.0084163288982160075 -0.014300827848625195 0.0016403682383834975 0.0082334703776552661 -0.0038236017548010054 0.012042698726132922 0.012092333879056043 -0.010710893836339289
leaf_count=18616 201 7597 2517 10441 1108 15489 31
internal_value=0 -0.418039 1.1096 -0.664302 0.281145 1.14891 -1.38416
internal_count=56000 37762 18238 29057 8705 18006 232
shrinkage=0.01


Tree=102
num_leaves=8
num_cat=0
split_feature=10 21 19 0 10 1 10
split_gain=5078.07 1320.62 866.214 322.138 69.9834 51.3814 5.15203
threshold=0.00011174315588923323 5.0000000000000009 2.8450039856738654e-11 9.5000000000000018 0.00081624767488029713 123.50000000000001 0.0038194028737004409
decision_type=2 2 2 2 2 2 2
left_child=1 2 -1 -3 5 -2 -6
right_child=4 3 -4 -5 6 -7 -8
leaf_value=-0.0065095135088713467 0.0099552987284915791 -0.0029371388238583103 0.01003061228790411 0.010907020395718611 0.01114809867362168 0.0031903896925921573 0.012207545127107111
leaf_count=32195 2069 911 1583 2744 4104 762 11632
internal_value=0 -0.422438 -0.570505 0.732943 1.11973 0.791616 1.19215
internal_count=56000 37433 33778 3655 18567 2831 15736
shrinkage=0.01


Tree=103
num_leaves=8
num_cat=0
split_feature=10 2 21 2 10 2 10
split_gain=5005.01 1339.62 2323.96 417.859 70.2486 35.8404 5.20055
threshold=0.00011174315588923323 2.5000000000000004 5.0000000000000009 17.500000000000004 0.00081624767488029713 1.5000000000000002 0.0038194028737004409
decision_type=2 2 2 2 2 2 2
left_child=1 2 -1 -3 5 -2 -6
right_child=4 3 -4 -5 6 -7 -8
leaf_value=-0.010794967734192029 -0.018187066621036686 -0.001616855117444464 0.0079346634974247574 0.0062766427832517107 0.011111039471334553 0.0081264244672612802 0.012178899557131707
leaf_count=21090 21 8735 3349 4259 4104 2810 11632
internal_value=0 -0.419161 -0.757127 0.0954666 1.11611 0.786829 1.18903
internal_count=56000 37433 24439 12994 18567 2831 15736
shrinkage=0.01


Tree=104
num_leaves=8
num_cat=0
split_feature=10 21 7 20 10 1 10
split_gain=4934.24 1275.03 577.495 305.505 70.5453 51.1982 5.24954
threshold=0.00011174315588923323 5.0000000000000009 0.28531524341580211 63.500000000000007 0.00081624767488029713 123.50000000000001 0.0038194028737004409
decision_type=2 2 2 2 2 2 2
left_child=1 2 -1 -3 5 -2 -6
right_child=4 3 -4 -5 6 -7 -8
leaf_value=-0.0015369709767843948 0.0098688490551925422 -0.0030283769517078559 -0.0077006938660335493 0.010619355965575169 0.011074291344657204 0.0030966915273836076 0.01215064734119788
leaf_count=10302 2069 877 23476 2778 4104 762 11632
internal_value=0 -0.416279 -0.562354 0.720531 1.1125 0.781998 1.18596
internal_count=56000 37433 33778 3655 18567 2831 15736
shrinkage=0.01


Tree=105
num_leaves=8
num_cat=0
split_feature=10 2 2 2 10 19 10
split_gain=4884.22 1315.4 360.996 240.627 68.4875 21.3665 3.76429
threshold=0.00011174315588923323 7.5000000000000009 1.5000000000000002 107.50000000000001 0.00102834058046484 1.113991673957838e-10 0.0038194028737004409
decision_type=2 2 2 2 2 2 2
left_child=1 2 -1 -3 5 -2 -6
right_child=4 3 -4 -5 6 -7 -8
leaf_value=-0.0084167762938082598 0.0067246679413038284 0.0020075099296821466 -0.003474883730917218 0.012092683200374814 0.011156684485211123 0.010694376663710974 0.01212811599149885
leaf_count=18859 2068 5521 11880 1315 3591 1228 11538
internal_value=0 -0.419336 -0.633578 0.378787 1.10922 0.809415 1.18898
internal_count=56000 37575 30739 6836 18425 3296 15129
shrinkage=0.01


Tree=106
num_leaves=8
num_cat=0
split_feature=19 21 2 2 0 19 15
split_gain=4663.58 1339.16 2403.45 293.132 290.946 70.9385 0.137061
threshold=6.2277682249810669e-12 5.0000000000000009 1.5000000000000002 1.5000000000000002 39.500000000000007 1.113991673957838e-10 0.0084015075425642686
decision_type=2 2 2 2 2 2 2
left_child=1 2 -1 6 -3 -5 -2
right_child=3 4 -4 5 -6 -7 -8
leaf_value=-0.012928851455865885 -0.01592076228861819 0.0014509679633615993 -0.00075917626396423878 0.0079136320721373086 0.012843651735727215 0.01198749590206658 -0.013363738681493167
leaf_count=15503 32 1797 18434 2972 2000 15047 215
internal_value=0 -0.412022 -0.564578 1.08153 0.735222 1.12297 -1.37681
internal_count=56000 37734 33937 18266 3797 18019 247
shrinkage=0.01


Tree=107
num_leaves=8
num_cat=0
split_feature=10 2 21 1 10 1 10
split_gain=4755.75 1281.12 1764.66 251.562 68.8264 48.4079 3.80369
threshold=0.00011174315588923323 7.5000000000000009 5.0000000000000009 21.500000000000004 0.00102834058046484 68.500000000000014 0.0038194028737004409
decision_type=2 2 2 2 2 2 2
left_child=1 2 -1 -3 5 -2 -6
right_child=4 3 -4 -5 6 -7 -8
leaf_value=-0.0084260394536596617 0.010789861778567878 0.0072646113027569157 0.007257446198072056 -0.00065085982292042532 0.011094337460346803 0.0050965919746474558 0.01207684931866925
leaf_count=27249 1786 3835 3490 3001 3591 1510 11538
internal_value=0 -0.413642 -0.626078 0.374235 1.10279 0.801349 1.18354
internal_count=56000 37575 30739 6836 18425 3296 15129
shrinkage=0.01


Tree=108
num_leaves=8
num_cat=0
split_feature=10 2 21 2 10 1 10
split_gain=4688.23 1270.47 2185.54 391.209 69.1419 48.1443 3.84108
threshold=0.00011174315588923323 2.5000000000000004 5.0000000000000009 70.500000000000014 0.00102834058046484 68.500000000000014 0.0038194028737004409
decision_type=2 2 2 2 2 2 2
left_child=1 2 -1 -3 5 -2 -6
right_child=4 3 -4 -5 6 -7 -8
leaf_value=-0.010622129740875744 0.010746270537027059 -0.00050290657632511004 0.0076606174756247104 0.010166791351135232 0.011059576525987467 0.005057001535975254 0.012050083897355332
leaf_count=21141 1786 11312 3327 1795 3591 1510 11538
internal_value=0 -0.410667 -0.745305 0.0867332 1.0993 0.796655 1.18065
internal_count=56000 37575 24468 13107 18425 3296 15129
shrinkage=0.01


Tree=109
num_leaves=8
num_cat=0
split_feature=10 2 2 1 10 1 10
split_gain=4622.14 1253.56 384.661 133.629 69.4572 47.883 3.87881
threshold=0.00011174315588923323 2.5000000000000004 70.500000000000014 27.500000000000004 0.00102834058046484 68.500000000000014 0.0038194028737004409
decision_type=2 2 2 2 2 2 2
left_child=1 3 -3 -1 5 -2 -6
right_child=4 2 -4 -5 6 -7 -8
leaf_value=-0.0056554039320033259 0.010703019332082602 -0.00049790740654522176 0.010096374682651512 -0.009088782405257784 0.011025098864724288 0.0050176794053812838 0.012023677789324366
leaf_count=11570 1786 11312 1795 12898 3591 1510 11538
internal_value=0 -0.40784 0.0859064 -0.741503 1.09584 0.791988 1.1778
internal_count=56000 37575 13107 24468 18425 3296 15129
shrinkage=0.01


Tree=110
num_leaves=7
num_cat=0
split_feature=10 21 2 20 2 10
split_gain=4483.47 1246.01 2462.37 291.491 63.842 55.3693
threshold=0.00013200606456677458 5.0000000000000009 1.5000000000000002 73.000000000000014 1.5000000000000002 0.0007800818350565111
decision_type=2 2 2 2 2 2
left_child=1 2 -1 -3 -2 -6
right_child=4 3 -4 -5 5 -7
leaf_value=-0.012819441512230559 -0.018019158578511395 -0.0022289055642282026 -0.00046638676022648929 0.010828974470223475 0.007923917047699125 0.011697434182751017
leaf_count=15612 31 936 18382 2725 2593 15721
internal_value=0 -0.391033 -0.536514 0.733593 1.09722 1.10519
internal_count=56000 37655 33994 3661 18345 18314
shrinkage=0.01


Tree=111
num_leaves=8
num_cat=0
split_feature=10 19 1 10 1 19 10
split_gain=4420.41 676.782 433.7 63.3756 56.7289 27.7142 6.60964
threshold=0.00013200606456677458 6.913361429853834e-11 19.500000000000004 0.0007800818350565111 154.50000000000003 5.2274084359622553e-10 0.0019513416467752582
decision_type=2 2 2 2 2 2 2
left_child=1 2 -1 4 -2 -3 -5
right_child=3 5 -4 6 -6 -7 -8
leaf_value=-0.001610390130455162 0.009558657049260998 0.0065703511637743026 -0.0065418948577255203 0.010311441314562686 0.001464687821450859 0.013478826863857526 0.011861520266123375
leaf_count=14791 2065 409 21507 2143 548 948 13589
internal_value=0 -0.38822 -0.446479 1.09385 0.760712 1.14144 1.16349
internal_count=56000 37655 36298 18345 2613 1357 15732
shrinkage=0.01


Tree=112
num_leaves=8
num_cat=0
split_feature=10 21 2 0 10 17 10
split_gain=4356.84 1224.71 2442.2 306.671 63.6148 23.7148 6.66819
threshold=0.00013200606456677458 5.0000000000000009 1.5000000000000002 13.500000000000002 0.0007800818350565111 0.0032912791033566356 0.0019513416467752582
decision_type=2 2 2 2 2 2 2
left_child=1 2 -1 -3 5 -2 -6
right_child=4 3 -4 -5 6 -7 -8
leaf_value=-0.012770611110316934 0.0051031083891583222 -0.0017230007347308249 -0.00042814368032031069 0.01120370680393208 0.01027341727900833 0.0096145430601711351 0.011835164494448458
leaf_count=15612 1102 1058 18382 2603 2143 1511 13589
internal_value=0 -0.384925 -0.529716 0.730539 1.09052 0.756182 1.16065
internal_count=56000 37655 33994 3661 18345 2613 15732
shrinkage=0.01


Tree=113
num_leaves=8
num_cat=0
split_feature=10 2 21 19 10 1 10
split_gain=4295.67 1209.65 2184.67 387.812 63.8881 56.3049 6.72717
threshold=0.00013200606456677458 2.5000000000000004 5.0000000000000009 1.0185009725707197e-11 0.0007800818350565111 154.50000000000003 0.0019513416467752582
decision_type=2 2 2 2 2 2 2
left_child=1 2 -1 -3 5 -2 -6
right_child=4 3 -4 -5 6 -7 -8
leaf_value=-0.010411355681500908 0.0094743673513022 -0.00027913197164233447 0.0079089296571404431 0.010960037278459194 0.010235627828285371 0.0013924319667272234 0.011809133110391157
leaf_count=21020 2065 11629 3341 1665 2143 548 13589
internal_value=0 -0.382157 -0.7159 0.0971612 1.08719 0.751588 1.15785
internal_count=56000 37655 24361 13294 18345 2613 15732
shrinkage=0.01


Tree=114
num_leaves=8
num_cat=0
split_feature=10 2 21 19 10 17 10
split_gain=4235.79 1193.38 2153.11 381.7 64.1265 23.5658 6.78654
threshold=0.00013200606456677458 2.5000000000000004 5.0000000000000009 1.0185009725707197e-11 0.0007800818350565111 0.0032912791033566356 0.0019513416467752582
decision_type=2 2 2 2 2 2 2
left_child=1 2 -1 -3 5 -2 -6
right_child=4 3 -4 -5 6 -7 -8
leaf_value=-0.010366276234055638 0.0050165664113100876 -0.00027634949017335845 0.0078411754626231105 0.010893424395167392 0.010198066900791511 0.0095306693265954662 0.01178341732988324
leaf_count=21020 1102 11629 3341 1665 2143 1511 13589
internal_value=0 -0.37952 -0.712265 0.0962368 1.08391 0.747109 1.15507
internal_count=56000 37655 24361 13294 18345 2613 15732
shrinkage=0.01


Tree=115
num_leaves=8
num_cat=0
split_feature=19 2 21 2 2 19 18
split_gain=4170.35 1190.5 2002.76 333.44 267.624 60.2105 0.344293
threshold=7.2986349999177267e-12 2.5000000000000004 5.0000000000000009 19.500000000000004 1.5000000000000002 1.113991673957838e-10 7.805172560730829e-05
decision_type=2 2 2 2 2 2 2
left_child=1 2 -1 -3 6 -6 -2
right_child=4 3 -4 -5 5 -7 -8
leaf_value=-0.010375764207283041 -0.016063729557460774 -0.001343967575864125 0.0072531898894566231 0.0056679624741575833 0.0078285103585191366 0.011780881131006818 -0.013051649478836342
leaf_count=20742 38 9104 3332 4573 2778 15232 201
internal_value=0 -0.381711 -0.719212 0.0907877 1.06766 1.10838 -1.36202
internal_count=56000 37751 24074 13677 18249 18010 239
shrinkage=0.01


Tree=116
num_leaves=8
num_cat=0
split_feature=2 21 2 17 0 1 17
